<?xml version="1.0" encoding="UTF-8" standalone="yes"?>
<PMML xmlns="http://www.dmg.org/PMML-4_4" xmlns:data="http://jpmml.org/jpmml-model/InlineTable" version="4.4">
	<Header>
		<Application name="JPMML-SkLearn" version="1.6.35"/>
		<Timestamp>2022-08-16T15:27:51Z</Timestamp>
	</Header>
	<MiningBuildTask>
		<Extension name="repr">PMMLPipeline(steps=[('vectorizer', TfidfVectorizer(norm=None, token_pattern=None,
                tokenizer=&lt;sklearn2pmml.feature_extraction.text.Splitter object at 0x7fb9eefefb10&gt;)),
       ('mlp', MLPClassifier())])</Extension>
	</MiningBuildTask>
	<DataDictionary>
		<DataField name="y" optype="categorical" dataType="integer">
			<Value value="0"/>
			<Value value="1"/>
			<Value value="2"/>
			<Value value="3"/>
			<Value value="4"/>
			<Value value="5"/>
			<Value value="6"/>
			<Value value="7"/>
			<Value value="8"/>
			<Value value="9"/>
			<Value value="10"/>
			<Value value="11"/>
			<Value value="12"/>
			<Value value="13"/>
			<Value value="14"/>
			<Value value="15"/>
			<Value value="16"/>
			<Value value="17"/>
			<Value value="18"/>
			<Value value="19"/>
			<Value value="20"/>
			<Value value="21"/>
			<Value value="22"/>
			<Value value="23"/>
			<Value value="24"/>
			<Value value="25"/>
			<Value value="26"/>
			<Value value="27"/>
		</DataField>
		<DataField name="x1" optype="categorical" dataType="string"/>
	</DataDictionary>
	<TransformationDictionary>
		<DefineFunction name="tf-idf(lowercase(x1))" optype="continuous" dataType="double">
			<ParameterField name="document"/>
			<ParameterField name="term"/>
			<ParameterField name="weight"/>
			<Apply function="*">
				<TextIndex textField="document">
					<FieldRef field="term"/>
				</TextIndex>
				<FieldRef field="weight"/>
			</Apply>
		</DefineFunction>
	</TransformationDictionary>
	<NeuralNetwork functionName="classification" algorithmName="sklearn.neural_network._multilayer_perceptron.MLPClassifier" activationFunction="rectifier">
		<MiningSchema>
			<MiningField name="y" usageType="target"/>
			<MiningField name="x1"/>
		</MiningSchema>
		<Output>
			<OutputField name="probability(0)" optype="continuous" dataType="double" feature="probability" value="0"/>
			<OutputField name="probability(1)" optype="continuous" dataType="double" feature="probability" value="1"/>
			<OutputField name="probability(2)" optype="continuous" dataType="double" feature="probability" value="2"/>
			<OutputField name="probability(3)" optype="continuous" dataType="double" feature="probability" value="3"/>
			<OutputField name="probability(4)" optype="continuous" dataType="double" feature="probability" value="4"/>
			<OutputField name="probability(5)" optype="continuous" dataType="double" feature="probability" value="5"/>
			<OutputField name="probability(6)" optype="continuous" dataType="double" feature="probability" value="6"/>
			<OutputField name="probability(7)" optype="continuous" dataType="double" feature="probability" value="7"/>
			<OutputField name="probability(8)" optype="continuous" dataType="double" feature="probability" value="8"/>
			<OutputField name="probability(9)" optype="continuous" dataType="double" feature="probability" value="9"/>
			<OutputField name="probability(10)" optype="continuous" dataType="double" feature="probability" value="10"/>
			<OutputField name="probability(11)" optype="continuous" dataType="double" feature="probability" value="11"/>
			<OutputField name="probability(12)" optype="continuous" dataType="double" feature="probability" value="12"/>
			<OutputField name="probability(13)" optype="continuous" dataType="double" feature="probability" value="13"/>
			<OutputField name="probability(14)" optype="continuous" dataType="double" feature="probability" value="14"/>
			<OutputField name="probability(15)" optype="continuous" dataType="double" feature="probability" value="15"/>
			<OutputField name="probability(16)" optype="continuous" dataType="double" feature="probability" value="16"/>
			<OutputField name="probability(17)" optype="continuous" dataType="double" feature="probability" value="17"/>
			<OutputField name="probability(18)" optype="continuous" dataType="double" feature="probability" value="18"/>
			<OutputField name="probability(19)" optype="continuous" dataType="double" feature="probability" value="19"/>
			<OutputField name="probability(20)" optype="continuous" dataType="double" feature="probability" value="20"/>
			<OutputField name="probability(21)" optype="continuous" dataType="double" feature="probability" value="21"/>
			<OutputField name="probability(22)" optype="continuous" dataType="double" feature="probability" value="22"/>
			<OutputField name="probability(23)" optype="continuous" dataType="double" feature="probability" value="23"/>
			<OutputField name="probability(24)" optype="continuous" dataType="double" feature="probability" value="24"/>
			<OutputField name="probability(25)" optype="continuous" dataType="double" feature="probability" value="25"/>
			<OutputField name="probability(26)" optype="continuous" dataType="double" feature="probability" value="26"/>
			<OutputField name="probability(27)" optype="continuous" dataType="double" feature="probability" value="27"/>
		</Output>
		<LocalTransformations>
			<DerivedField name="lowercase(x1)" optype="categorical" dataType="string">
				<Apply function="lowercase">
					<FieldRef field="x1"/>
				</Apply>
			</DerivedField>
			<DerivedField name="tf-idf(lowercase(x1), a)" optype="continuous" dataType="double">
				<Apply function="tf-idf(lowercase(x1))">
					<FieldRef field="lowercase(x1)"/>
					<Constant dataType="string">a</Constant>
					<Constant dataType="double">5.574710978503383</Constant>
				</Apply>
			</DerivedField>
			<DerivedField name="tf-idf(lowercase(x1), about)" optype="continuous" dataType="double">
				<Apply function="tf-idf(lowercase(x1))">
					<FieldRef field="lowercase(x1)"/>
					<Constant dataType="string">about</Constant>
					<Constant dataType="double">4.881563797943437</Constant>
				</Apply>
			</DerivedField>
			<DerivedField name="tf-idf(lowercase(x1), activity)" optype="continuous" dataType="double">
				<Apply function="tf-idf(lowercase(x1))">
					<FieldRef field="lowercase(x1)"/>
					<Constant dataType="string">activity</Constant>
					<Constant dataType="double">5.169245870395218</Constant>
				</Apply>
			</DerivedField>
			<DerivedField name="tf-idf(lowercase(x1), agent)" optype="continuous" dataType="double">
				<Apply function="tf-idf(lowercase(x1))">
					<FieldRef field="lowercase(x1)"/>
					<Constant dataType="string">agent</Constant>
					<Constant dataType="double">5.574710978503383</Constant>
				</Apply>
			</DerivedField>
			<DerivedField name="tf-idf(lowercase(x1), ai)" optype="continuous" dataType="double">
				<Apply function="tf-idf(lowercase(x1))">
					<FieldRef field="lowercase(x1)"/>
					<Constant dataType="string">ai</Constant>
					<Constant dataType="double">5.574710978503383</Constant>
				</Apply>
			</DerivedField>
			<DerivedField name="tf-idf(lowercase(x1), air)" optype="continuous" dataType="double">
				<Apply function="tf-idf(lowercase(x1))">
					<FieldRef field="lowercase(x1)"/>
					<Constant dataType="string">air</Constant>
					<Constant dataType="double">4.321948010008015</Constant>
				</Apply>
			</DerivedField>
			<DerivedField name="tf-idf(lowercase(x1), airflow)" optype="continuous" dataType="double">
				<Apply function="tf-idf(lowercase(x1))">
					<FieldRef field="lowercase(x1)"/>
					<Constant dataType="string">airflow</Constant>
					<Constant dataType="double">5.169245870395218</Constant>
				</Apply>
			</DerivedField>
			<DerivedField name="tf-idf(lowercase(x1), alt)" optype="continuous" dataType="double">
				<Apply function="tf-idf(lowercase(x1))">
					<FieldRef field="lowercase(x1)"/>
					<Constant dataType="string">alt</Constant>
					<Constant dataType="double">5.574710978503383</Constant>
				</Apply>
			</DerivedField>
			<DerivedField name="tf-idf(lowercase(x1), altitude)" optype="continuous" dataType="double">
				<Apply function="tf-idf(lowercase(x1))">
					<FieldRef field="lowercase(x1)"/>
					<Constant dataType="string">altitude</Constant>
					<Constant dataType="double">5.169245870395218</Constant>
				</Apply>
			</DerivedField>
			<DerivedField name="tf-idf(lowercase(x1), am)" optype="continuous" dataType="double">
				<Apply function="tf-idf(lowercase(x1))">
					<FieldRef field="lowercase(x1)"/>
					<Constant dataType="string">am</Constant>
					<Constant dataType="double">4.188416617383492</Constant>
				</Apply>
			</DerivedField>
			<DerivedField name="tf-idf(lowercase(x1), amount)" optype="continuous" dataType="double">
				<Apply function="tf-idf(lowercase(x1))">
					<FieldRef field="lowercase(x1)"/>
					<Constant dataType="string">amount</Constant>
					<Constant dataType="double">5.574710978503383</Constant>
				</Apply>
			</DerivedField>
			<DerivedField name="tf-idf(lowercase(x1), an)" optype="continuous" dataType="double">
				<Apply function="tf-idf(lowercase(x1))">
					<FieldRef field="lowercase(x1)"/>
					<Constant dataType="string">an</Constant>
					<Constant dataType="double">5.169245870395218</Constant>
				</Apply>
			</DerivedField>
			<DerivedField name="tf-idf(lowercase(x1), are)" optype="continuous" dataType="double">
				<Apply function="tf-idf(lowercase(x1))">
					<FieldRef field="lowercase(x1)"/>
					<Constant dataType="string">are</Constant>
					<Constant dataType="double">3.782951509275328</Constant>
				</Apply>
			</DerivedField>
			<DerivedField name="tf-idf(lowercase(x1), astronomer)" optype="continuous" dataType="double">
				<Apply function="tf-idf(lowercase(x1))">
					<FieldRef field="lowercase(x1)"/>
					<Constant dataType="string">astronomer</Constant>
					<Constant dataType="double">5.574710978503383</Constant>
				</Apply>
			</DerivedField>
			<DerivedField name="tf-idf(lowercase(x1), astrozooligist)" optype="continuous" dataType="double">
				<Apply function="tf-idf(lowercase(x1))">
					<FieldRef field="lowercase(x1)"/>
					<Constant dataType="string">astrozooligist</Constant>
					<Constant dataType="double">4.476098689835274</Constant>
				</Apply>
			</DerivedField>
			<DerivedField name="tf-idf(lowercase(x1), at)" optype="continuous" dataType="double">
				<Apply function="tf-idf(lowercase(x1))">
					<FieldRef field="lowercase(x1)"/>
					<Constant dataType="string">at</Constant>
					<Constant dataType="double">5.574710978503383</Constant>
				</Apply>
			</DerivedField>
			<DerivedField name="tf-idf(lowercase(x1), atmosphere)" optype="continuous" dataType="double">
				<Apply function="tf-idf(lowercase(x1))">
					<FieldRef field="lowercase(x1)"/>
					<Constant dataType="string">atmosphere</Constant>
					<Constant dataType="double">4.881563797943437</Constant>
				</Apply>
			</DerivedField>
			<DerivedField name="tf-idf(lowercase(x1), axial)" optype="continuous" dataType="double">
				<Apply function="tf-idf(lowercase(x1))">
					<FieldRef field="lowercase(x1)"/>
					<Constant dataType="string">axial</Constant>
					<Constant dataType="double">5.574710978503383</Constant>
				</Apply>
			</DerivedField>
			<DerivedField name="tf-idf(lowercase(x1), axis)" optype="continuous" dataType="double">
				<Apply function="tf-idf(lowercase(x1))">
					<FieldRef field="lowercase(x1)"/>
					<Constant dataType="string">axis</Constant>
					<Constant dataType="double">5.169245870395218</Constant>
				</Apply>
			</DerivedField>
			<DerivedField name="tf-idf(lowercase(x1), back)" optype="continuous" dataType="double">
				<Apply function="tf-idf(lowercase(x1))">
					<FieldRef field="lowercase(x1)"/>
					<Constant dataType="string">back</Constant>
					<Constant dataType="double">5.574710978503383</Constant>
				</Apply>
			</DerivedField>
			<DerivedField name="tf-idf(lowercase(x1), be)" optype="continuous" dataType="double">
				<Apply function="tf-idf(lowercase(x1))">
					<FieldRef field="lowercase(x1)"/>
					<Constant dataType="string">be</Constant>
					<Constant dataType="double">5.574710978503383</Constant>
				</Apply>
			</DerivedField>
			<DerivedField name="tf-idf(lowercase(x1), being)" optype="continuous" dataType="double">
				<Apply function="tf-idf(lowercase(x1))">
					<FieldRef field="lowercase(x1)"/>
					<Constant dataType="string">being</Constant>
					<Constant dataType="double">5.574710978503383</Constant>
				</Apply>
			</DerivedField>
			<DerivedField name="tf-idf(lowercase(x1), big)" optype="continuous" dataType="double">
				<Apply function="tf-idf(lowercase(x1))">
					<FieldRef field="lowercase(x1)"/>
					<Constant dataType="string">big</Constant>
					<Constant dataType="double">5.574710978503383</Constant>
				</Apply>
			</DerivedField>
			<DerivedField name="tf-idf(lowercase(x1), body)" optype="continuous" dataType="double">
				<Apply function="tf-idf(lowercase(x1))">
					<FieldRef field="lowercase(x1)"/>
					<Constant dataType="string">body</Constant>
					<Constant dataType="double">5.574710978503383</Constant>
				</Apply>
			</DerivedField>
			<DerivedField name="tf-idf(lowercase(x1), breath)" optype="continuous" dataType="double">
				<Apply function="tf-idf(lowercase(x1))">
					<FieldRef field="lowercase(x1)"/>
					<Constant dataType="string">breath</Constant>
					<Constant dataType="double">5.574710978503383</Constant>
				</Apply>
			</DerivedField>
			<DerivedField name="tf-idf(lowercase(x1), bye)" optype="continuous" dataType="double">
				<Apply function="tf-idf(lowercase(x1))">
					<FieldRef field="lowercase(x1)"/>
					<Constant dataType="string">bye</Constant>
					<Constant dataType="double">5.574710978503383</Constant>
				</Apply>
			</DerivedField>
			<DerivedField name="tf-idf(lowercase(x1), can)" optype="continuous" dataType="double">
				<Apply function="tf-idf(lowercase(x1))">
					<FieldRef field="lowercase(x1)"/>
					<Constant dataType="string">can</Constant>
					<Constant dataType="double">3.272125885509337</Constant>
				</Apply>
			</DerivedField>
			<DerivedField name="tf-idf(lowercase(x1), carmichael)" optype="continuous" dataType="double">
				<Apply function="tf-idf(lowercase(x1))">
					<FieldRef field="lowercase(x1)"/>
					<Constant dataType="string">carmichael</Constant>
					<Constant dataType="double">5.574710978503383</Constant>
				</Apply>
			</DerivedField>
			<DerivedField name="tf-idf(lowercase(x1), celcius)" optype="continuous" dataType="double">
				<Apply function="tf-idf(lowercase(x1))">
					<FieldRef field="lowercase(x1)"/>
					<Constant dataType="string">celcius</Constant>
					<Constant dataType="double">5.574710978503383</Constant>
				</Apply>
			</DerivedField>
			<DerivedField name="tf-idf(lowercase(x1), chemist)" optype="continuous" dataType="double">
				<Apply function="tf-idf(lowercase(x1))">
					<FieldRef field="lowercase(x1)"/>
					<Constant dataType="string">chemist</Constant>
					<Constant dataType="double">4.476098689835274</Constant>
				</Apply>
			</DerivedField>
			<DerivedField name="tf-idf(lowercase(x1), content)" optype="continuous" dataType="double">
				<Apply function="tf-idf(lowercase(x1))">
					<FieldRef field="lowercase(x1)"/>
					<Constant dataType="string">content</Constant>
					<Constant dataType="double">5.169245870395218</Constant>
				</Apply>
			</DerivedField>
			<DerivedField name="tf-idf(lowercase(x1), contents)" optype="continuous" dataType="double">
				<Apply function="tf-idf(lowercase(x1))">
					<FieldRef field="lowercase(x1)"/>
					<Constant dataType="string">contents</Constant>
					<Constant dataType="double">5.574710978503383</Constant>
				</Apply>
			</DerivedField>
			<DerivedField name="tf-idf(lowercase(x1), cosmic)" optype="continuous" dataType="double">
				<Apply function="tf-idf(lowercase(x1))">
					<FieldRef field="lowercase(x1)"/>
					<Constant dataType="string">cosmic</Constant>
					<Constant dataType="double">5.169245870395218</Constant>
				</Apply>
			</DerivedField>
			<DerivedField name="tf-idf(lowercase(x1), crushed)" optype="continuous" dataType="double">
				<Apply function="tf-idf(lowercase(x1))">
					<FieldRef field="lowercase(x1)"/>
					<Constant dataType="string">crushed</Constant>
					<Constant dataType="double">5.574710978503383</Constant>
				</Apply>
			</DerivedField>
			<DerivedField name="tf-idf(lowercase(x1), day)" optype="continuous" dataType="double">
				<Apply function="tf-idf(lowercase(x1))">
					<FieldRef field="lowercase(x1)"/>
					<Constant dataType="string">day</Constant>
					<Constant dataType="double">5.574710978503383</Constant>
				</Apply>
			</DerivedField>
			<DerivedField name="tf-idf(lowercase(x1), days)" optype="continuous" dataType="double">
				<Apply function="tf-idf(lowercase(x1))">
					<FieldRef field="lowercase(x1)"/>
					<Constant dataType="string">days</Constant>
					<Constant dataType="double">5.169245870395218</Constant>
				</Apply>
			</DerivedField>
			<DerivedField name="tf-idf(lowercase(x1), direct)" optype="continuous" dataType="double">
				<Apply function="tf-idf(lowercase(x1))">
					<FieldRef field="lowercase(x1)"/>
					<Constant dataType="string">direct</Constant>
					<Constant dataType="double">5.574710978503383</Constant>
				</Apply>
			</DerivedField>
			<DerivedField name="tf-idf(lowercase(x1), directions)" optype="continuous" dataType="double">
				<Apply function="tf-idf(lowercase(x1))">
					<FieldRef field="lowercase(x1)"/>
					<Constant dataType="string">directions</Constant>
					<Constant dataType="double">5.574710978503383</Constant>
				</Apply>
			</DerivedField>
			<DerivedField name="tf-idf(lowercase(x1), do)" optype="continuous" dataType="double">
				<Apply function="tf-idf(lowercase(x1))">
					<FieldRef field="lowercase(x1)"/>
					<Constant dataType="string">do</Constant>
					<Constant dataType="double">3.223335721339905</Constant>
				</Apply>
			</DerivedField>
			<DerivedField name="tf-idf(lowercase(x1), does)" optype="continuous" dataType="double">
				<Apply function="tf-idf(lowercase(x1))">
					<FieldRef field="lowercase(x1)"/>
					<Constant dataType="string">does</Constant>
					<Constant dataType="double">3.495269436823547</Constant>
				</Apply>
			</DerivedField>
			<DerivedField name="tf-idf(lowercase(x1), down)" optype="continuous" dataType="double">
				<Apply function="tf-idf(lowercase(x1))">
					<FieldRef field="lowercase(x1)"/>
					<Constant dataType="string">down</Constant>
					<Constant dataType="double">5.574710978503383</Constant>
				</Apply>
			</DerivedField>
			<DerivedField name="tf-idf(lowercase(x1), energy)" optype="continuous" dataType="double">
				<Apply function="tf-idf(lowercase(x1))">
					<FieldRef field="lowercase(x1)"/>
					<Constant dataType="string">energy</Constant>
					<Constant dataType="double">5.169245870395218</Constant>
				</Apply>
			</DerivedField>
			<DerivedField name="tf-idf(lowercase(x1), engineer)" optype="continuous" dataType="double">
				<Apply function="tf-idf(lowercase(x1))">
					<FieldRef field="lowercase(x1)"/>
					<Constant dataType="string">engineer</Constant>
					<Constant dataType="double">5.574710978503383</Constant>
				</Apply>
			</DerivedField>
			<DerivedField name="tf-idf(lowercase(x1), eric)" optype="continuous" dataType="double">
				<Apply function="tf-idf(lowercase(x1))">
					<FieldRef field="lowercase(x1)"/>
					<Constant dataType="string">eric</Constant>
					<Constant dataType="double">4.476098689835274</Constant>
				</Apply>
			</DerivedField>
			<DerivedField name="tf-idf(lowercase(x1), exerted)" optype="continuous" dataType="double">
				<Apply function="tf-idf(lowercase(x1))">
					<FieldRef field="lowercase(x1)"/>
					<Constant dataType="string">exerted</Constant>
					<Constant dataType="double">5.574710978503383</Constant>
				</Apply>
			</DerivedField>
			<DerivedField name="tf-idf(lowercase(x1), exonaut)" optype="continuous" dataType="double">
				<Apply function="tf-idf(lowercase(x1))">
					<FieldRef field="lowercase(x1)"/>
					<Constant dataType="string">exonaut</Constant>
					<Constant dataType="double">4.658420246629228</Constant>
				</Apply>
			</DerivedField>
			<DerivedField name="tf-idf(lowercase(x1), exoplanet)" optype="continuous" dataType="double">
				<Apply function="tf-idf(lowercase(x1))">
					<FieldRef field="lowercase(x1)"/>
					<Constant dataType="string">exoplanet</Constant>
					<Constant dataType="double">5.574710978503383</Constant>
				</Apply>
			</DerivedField>
			<DerivedField name="tf-idf(lowercase(x1), explorer)" optype="continuous" dataType="double">
				<Apply function="tf-idf(lowercase(x1))">
					<FieldRef field="lowercase(x1)"/>
					<Constant dataType="string">explorer</Constant>
					<Constant dataType="double">4.476098689835274</Constant>
				</Apply>
			</DerivedField>
			<DerivedField name="tf-idf(lowercase(x1), fahrenheit)" optype="continuous" dataType="double">
				<Apply function="tf-idf(lowercase(x1))">
					<FieldRef field="lowercase(x1)"/>
					<Constant dataType="string">fahrenheit</Constant>
					<Constant dataType="double">5.574710978503383</Constant>
				</Apply>
			</DerivedField>
			<DerivedField name="tf-idf(lowercase(x1), fall)" optype="continuous" dataType="double">
				<Apply function="tf-idf(lowercase(x1))">
					<FieldRef field="lowercase(x1)"/>
					<Constant dataType="string">fall</Constant>
					<Constant dataType="double">5.574710978503383</Constant>
				</Apply>
			</DerivedField>
			<DerivedField name="tf-idf(lowercase(x1), far)" optype="continuous" dataType="double">
				<Apply function="tf-idf(lowercase(x1))">
					<FieldRef field="lowercase(x1)"/>
					<Constant dataType="string">far</Constant>
					<Constant dataType="double">5.574710978503383</Constant>
				</Apply>
			</DerivedField>
			<DerivedField name="tf-idf(lowercase(x1), fast)" optype="continuous" dataType="double">
				<Apply function="tf-idf(lowercase(x1))">
					<FieldRef field="lowercase(x1)"/>
					<Constant dataType="string">fast</Constant>
					<Constant dataType="double">5.169245870395218</Constant>
				</Apply>
			</DerivedField>
			<DerivedField name="tf-idf(lowercase(x1), field)" optype="continuous" dataType="double">
				<Apply function="tf-idf(lowercase(x1))">
					<FieldRef field="lowercase(x1)"/>
					<Constant dataType="string">field</Constant>
					<Constant dataType="double">5.574710978503383</Constant>
				</Apply>
			</DerivedField>
			<DerivedField name="tf-idf(lowercase(x1), find)" optype="continuous" dataType="double">
				<Apply function="tf-idf(lowercase(x1))">
					<FieldRef field="lowercase(x1)"/>
					<Constant dataType="string">find</Constant>
					<Constant dataType="double">3.559807957961118</Constant>
				</Apply>
			</DerivedField>
			<DerivedField name="tf-idf(lowercase(x1), fo)" optype="continuous" dataType="double">
				<Apply function="tf-idf(lowercase(x1))">
					<FieldRef field="lowercase(x1)"/>
					<Constant dataType="string">fo</Constant>
					<Constant dataType="double">5.574710978503383</Constant>
				</Apply>
			</DerivedField>
			<DerivedField name="tf-idf(lowercase(x1), following)" optype="continuous" dataType="double">
				<Apply function="tf-idf(lowercase(x1))">
					<FieldRef field="lowercase(x1)"/>
					<Constant dataType="string">following</Constant>
					<Constant dataType="double">5.574710978503383</Constant>
				</Apply>
			</DerivedField>
			<DerivedField name="tf-idf(lowercase(x1), for)" optype="continuous" dataType="double">
				<Apply function="tf-idf(lowercase(x1))">
					<FieldRef field="lowercase(x1)"/>
					<Constant dataType="string">for</Constant>
					<Constant dataType="double">3.495269436823547</Constant>
				</Apply>
			</DerivedField>
			<DerivedField name="tf-idf(lowercase(x1), force)" optype="continuous" dataType="double">
				<Apply function="tf-idf(lowercase(x1))">
					<FieldRef field="lowercase(x1)"/>
					<Constant dataType="string">force</Constant>
					<Constant dataType="double">4.658420246629228</Constant>
				</Apply>
			</DerivedField>
			<DerivedField name="tf-idf(lowercase(x1), friend)" optype="continuous" dataType="double">
				<Apply function="tf-idf(lowercase(x1))">
					<FieldRef field="lowercase(x1)"/>
					<Constant dataType="string">friend</Constant>
					<Constant dataType="double">5.574710978503383</Constant>
				</Apply>
			</DerivedField>
			<DerivedField name="tf-idf(lowercase(x1), from)" optype="continuous" dataType="double">
				<Apply function="tf-idf(lowercase(x1))">
					<FieldRef field="lowercase(x1)"/>
					<Constant dataType="string">from</Constant>
					<Constant dataType="double">5.574710978503383</Constant>
				</Apply>
			</DerivedField>
			<DerivedField name="tf-idf(lowercase(x1), galvin)" optype="continuous" dataType="double">
				<Apply function="tf-idf(lowercase(x1))">
					<FieldRef field="lowercase(x1)"/>
					<Constant dataType="string">galvin</Constant>
					<Constant dataType="double">4.476098689835274</Constant>
				</Apply>
			</DerivedField>
			<DerivedField name="tf-idf(lowercase(x1), geologist)" optype="continuous" dataType="double">
				<Apply function="tf-idf(lowercase(x1))">
					<FieldRef field="lowercase(x1)"/>
					<Constant dataType="string">geologist</Constant>
					<Constant dataType="double">5.574710978503383</Constant>
				</Apply>
			</DerivedField>
			<DerivedField name="tf-idf(lowercase(x1), get)" optype="continuous" dataType="double">
				<Apply function="tf-idf(lowercase(x1))">
					<FieldRef field="lowercase(x1)"/>
					<Constant dataType="string">get</Constant>
					<Constant dataType="double">4.476098689835274</Constant>
				</Apply>
			</DerivedField>
			<DerivedField name="tf-idf(lowercase(x1), go)" optype="continuous" dataType="double">
				<Apply function="tf-idf(lowercase(x1))">
					<FieldRef field="lowercase(x1)"/>
					<Constant dataType="string">go</Constant>
					<Constant dataType="double">5.169245870395218</Constant>
				</Apply>
			</DerivedField>
			<DerivedField name="tf-idf(lowercase(x1), goodbye)" optype="continuous" dataType="double">
				<Apply function="tf-idf(lowercase(x1))">
					<FieldRef field="lowercase(x1)"/>
					<Constant dataType="string">goodbye</Constant>
					<Constant dataType="double">5.574710978503383</Constant>
				</Apply>
			</DerivedField>
			<DerivedField name="tf-idf(lowercase(x1), got)" optype="continuous" dataType="double">
				<Apply function="tf-idf(lowercase(x1))">
					<FieldRef field="lowercase(x1)"/>
					<Constant dataType="string">got</Constant>
					<Constant dataType="double">5.574710978503383</Constant>
				</Apply>
			</DerivedField>
			<DerivedField name="tf-idf(lowercase(x1), gravity)" optype="continuous" dataType="double">
				<Apply function="tf-idf(lowercase(x1))">
					<FieldRef field="lowercase(x1)"/>
					<Constant dataType="string">gravity</Constant>
					<Constant dataType="double">5.169245870395218</Constant>
				</Apply>
			</DerivedField>
			<DerivedField name="tf-idf(lowercase(x1), height)" optype="continuous" dataType="double">
				<Apply function="tf-idf(lowercase(x1))">
					<FieldRef field="lowercase(x1)"/>
					<Constant dataType="string">height</Constant>
					<Constant dataType="double">5.574710978503383</Constant>
				</Apply>
			</DerivedField>
			<DerivedField name="tf-idf(lowercase(x1), hello)" optype="continuous" dataType="double">
				<Apply function="tf-idf(lowercase(x1))">
					<FieldRef field="lowercase(x1)"/>
					<Constant dataType="string">hello</Constant>
					<Constant dataType="double">5.574710978503383</Constant>
				</Apply>
			</DerivedField>
			<DerivedField name="tf-idf(lowercase(x1), her)" optype="continuous" dataType="double">
				<Apply function="tf-idf(lowercase(x1))">
					<FieldRef field="lowercase(x1)"/>
					<Constant dataType="string">her</Constant>
					<Constant dataType="double">5.574710978503383</Constant>
				</Apply>
			</DerivedField>
			<DerivedField name="tf-idf(lowercase(x1), here)" optype="continuous" dataType="double">
				<Apply function="tf-idf(lowercase(x1))">
					<FieldRef field="lowercase(x1)"/>
					<Constant dataType="string">here</Constant>
					<Constant dataType="double">3.3774864011671637</Constant>
				</Apply>
			</DerivedField>
			<DerivedField name="tf-idf(lowercase(x1), hey)" optype="continuous" dataType="double">
				<Apply function="tf-idf(lowercase(x1))">
					<FieldRef field="lowercase(x1)"/>
					<Constant dataType="string">hey</Constant>
					<Constant dataType="double">5.574710978503383</Constant>
				</Apply>
			</DerivedField>
			<DerivedField name="tf-idf(lowercase(x1), hi)" optype="continuous" dataType="double">
				<Apply function="tf-idf(lowercase(x1))">
					<FieldRef field="lowercase(x1)"/>
					<Constant dataType="string">hi</Constant>
					<Constant dataType="double">5.574710978503383</Constant>
				</Apply>
			</DerivedField>
			<DerivedField name="tf-idf(lowercase(x1), high)" optype="continuous" dataType="double">
				<Apply function="tf-idf(lowercase(x1))">
					<FieldRef field="lowercase(x1)"/>
					<Constant dataType="string">high</Constant>
					<Constant dataType="double">5.169245870395218</Constant>
				</Apply>
			</DerivedField>
			<DerivedField name="tf-idf(lowercase(x1), hobbies)" optype="continuous" dataType="double">
				<Apply function="tf-idf(lowercase(x1))">
					<FieldRef field="lowercase(x1)"/>
					<Constant dataType="string">hobbies</Constant>
					<Constant dataType="double">5.574710978503383</Constant>
				</Apply>
			</DerivedField>
			<DerivedField name="tf-idf(lowercase(x1), hobby)" optype="continuous" dataType="double">
				<Apply function="tf-idf(lowercase(x1))">
					<FieldRef field="lowercase(x1)"/>
					<Constant dataType="string">hobby</Constant>
					<Constant dataType="double">5.574710978503383</Constant>
				</Apply>
			</DerivedField>
			<DerivedField name="tf-idf(lowercase(x1), how)" optype="continuous" dataType="double">
				<Apply function="tf-idf(lowercase(x1))">
					<FieldRef field="lowercase(x1)"/>
					<Constant dataType="string">how</Constant>
					<Constant dataType="double">3.272125885509337</Constant>
				</Apply>
			</DerivedField>
			<DerivedField name="tf-idf(lowercase(x1), humid)" optype="continuous" dataType="double">
				<Apply function="tf-idf(lowercase(x1))">
					<FieldRef field="lowercase(x1)"/>
					<Constant dataType="string">humid</Constant>
					<Constant dataType="double">5.574710978503383</Constant>
				</Apply>
			</DerivedField>
			<DerivedField name="tf-idf(lowercase(x1), humidity)" optype="continuous" dataType="double">
				<Apply function="tf-idf(lowercase(x1))">
					<FieldRef field="lowercase(x1)"/>
					<Constant dataType="string">humidity</Constant>
					<Constant dataType="double">5.169245870395218</Constant>
				</Apply>
			</DerivedField>
			<DerivedField name="tf-idf(lowercase(x1), i)" optype="continuous" dataType="double">
				<Apply function="tf-idf(lowercase(x1))">
					<FieldRef field="lowercase(x1)"/>
					<Constant dataType="string">i</Constant>
					<Constant dataType="double">2.6569402464191034</Constant>
				</Apply>
			</DerivedField>
			<DerivedField name="tf-idf(lowercase(x1), in)" optype="continuous" dataType="double">
				<Apply function="tf-idf(lowercase(x1))">
					<FieldRef field="lowercase(x1)"/>
					<Constant dataType="string">in</Constant>
					<Constant dataType="double">4.881563797943437</Constant>
				</Apply>
			</DerivedField>
			<DerivedField name="tf-idf(lowercase(x1), is)" optype="continuous" dataType="double">
				<Apply function="tf-idf(lowercase(x1))">
					<FieldRef field="lowercase(x1)"/>
					<Constant dataType="string">is</Constant>
					<Constant dataType="double">2.439216762574233</Constant>
				</Apply>
			</DerivedField>
			<DerivedField name="tf-idf(lowercase(x1), it)" optype="continuous" dataType="double">
				<Apply function="tf-idf(lowercase(x1))">
					<FieldRef field="lowercase(x1)"/>
					<Constant dataType="string">it</Constant>
					<Constant dataType="double">4.881563797943437</Constant>
				</Apply>
			</DerivedField>
			<DerivedField name="tf-idf(lowercase(x1), job)" optype="continuous" dataType="double">
				<Apply function="tf-idf(lowercase(x1))">
					<FieldRef field="lowercase(x1)"/>
					<Constant dataType="string">job</Constant>
					<Constant dataType="double">3.7029088016017915</Constant>
				</Apply>
			</DerivedField>
			<DerivedField name="tf-idf(lowercase(x1), keeps)" optype="continuous" dataType="double">
				<Apply function="tf-idf(lowercase(x1))">
					<FieldRef field="lowercase(x1)"/>
					<Constant dataType="string">keeps</Constant>
					<Constant dataType="double">5.574710978503383</Constant>
				</Apply>
			</DerivedField>
			<DerivedField name="tf-idf(lowercase(x1), kelvin)" optype="continuous" dataType="double">
				<Apply function="tf-idf(lowercase(x1))">
					<FieldRef field="lowercase(x1)"/>
					<Constant dataType="string">kelvin</Constant>
					<Constant dataType="double">5.574710978503383</Constant>
				</Apply>
			</DerivedField>
			<DerivedField name="tf-idf(lowercase(x1), know)" optype="continuous" dataType="double">
				<Apply function="tf-idf(lowercase(x1))">
					<FieldRef field="lowercase(x1)"/>
					<Constant dataType="string">know</Constant>
					<Constant dataType="double">5.169245870395218</Constant>
				</Apply>
			</DerivedField>
			<DerivedField name="tf-idf(lowercase(x1), kobey)" optype="continuous" dataType="double">
				<Apply function="tf-idf(lowercase(x1))">
					<FieldRef field="lowercase(x1)"/>
					<Constant dataType="string">kobey</Constant>
					<Constant dataType="double">4.476098689835274</Constant>
				</Apply>
			</DerivedField>
			<DerivedField name="tf-idf(lowercase(x1), length)" optype="continuous" dataType="double">
				<Apply function="tf-idf(lowercase(x1))">
					<FieldRef field="lowercase(x1)"/>
					<Constant dataType="string">length</Constant>
					<Constant dataType="double">4.881563797943437</Constant>
				</Apply>
			</DerivedField>
			<DerivedField name="tf-idf(lowercase(x1), level)" optype="continuous" dataType="double">
				<Apply function="tf-idf(lowercase(x1))">
					<FieldRef field="lowercase(x1)"/>
					<Constant dataType="string">level</Constant>
					<Constant dataType="double">5.574710978503383</Constant>
				</Apply>
			</DerivedField>
			<DerivedField name="tf-idf(lowercase(x1), levels)" optype="continuous" dataType="double">
				<Apply function="tf-idf(lowercase(x1))">
					<FieldRef field="lowercase(x1)"/>
					<Constant dataType="string">levels</Constant>
					<Constant dataType="double">5.169245870395218</Constant>
				</Apply>
			</DerivedField>
			<DerivedField name="tf-idf(lowercase(x1), like)" optype="continuous" dataType="double">
				<Apply function="tf-idf(lowercase(x1))">
					<FieldRef field="lowercase(x1)"/>
					<Constant dataType="string">like</Constant>
					<Constant dataType="double">4.070633581727108</Constant>
				</Apply>
			</DerivedField>
			<DerivedField name="tf-idf(lowercase(x1), localized)" optype="continuous" dataType="double">
				<Apply function="tf-idf(lowercase(x1))">
					<FieldRef field="lowercase(x1)"/>
					<Constant dataType="string">localized</Constant>
					<Constant dataType="double">5.574710978503383</Constant>
				</Apply>
			</DerivedField>
			<DerivedField name="tf-idf(lowercase(x1), location)" optype="continuous" dataType="double">
				<Apply function="tf-idf(lowercase(x1))">
					<FieldRef field="lowercase(x1)"/>
					<Constant dataType="string">location</Constant>
					<Constant dataType="double">5.169245870395218</Constant>
				</Apply>
			</DerivedField>
			<DerivedField name="tf-idf(lowercase(x1), long)" optype="continuous" dataType="double">
				<Apply function="tf-idf(lowercase(x1))">
					<FieldRef field="lowercase(x1)"/>
					<Constant dataType="string">long</Constant>
					<Constant dataType="double">4.881563797943437</Constant>
				</Apply>
			</DerivedField>
			<DerivedField name="tf-idf(lowercase(x1), looking)" optype="continuous" dataType="double">
				<Apply function="tf-idf(lowercase(x1))">
					<FieldRef field="lowercase(x1)"/>
					<Constant dataType="string">looking</Constant>
					<Constant dataType="double">5.169245870395218</Constant>
				</Apply>
			</DerivedField>
			<DerivedField name="tf-idf(lowercase(x1), lost)" optype="continuous" dataType="double">
				<Apply function="tf-idf(lowercase(x1))">
					<FieldRef field="lowercase(x1)"/>
					<Constant dataType="string">lost</Constant>
					<Constant dataType="double">5.574710978503383</Constant>
				</Apply>
			</DerivedField>
			<DerivedField name="tf-idf(lowercase(x1), magnetic)" optype="continuous" dataType="double">
				<Apply function="tf-idf(lowercase(x1))">
					<FieldRef field="lowercase(x1)"/>
					<Constant dataType="string">magnetic</Constant>
					<Constant dataType="double">5.169245870395218</Constant>
				</Apply>
			</DerivedField>
			<DerivedField name="tf-idf(lowercase(x1), make)" optype="continuous" dataType="double">
				<Apply function="tf-idf(lowercase(x1))">
					<FieldRef field="lowercase(x1)"/>
					<Constant dataType="string">make</Constant>
					<Constant dataType="double">5.574710978503383</Constant>
				</Apply>
			</DerivedField>
			<DerivedField name="tf-idf(lowercase(x1), many)" optype="continuous" dataType="double">
				<Apply function="tf-idf(lowercase(x1))">
					<FieldRef field="lowercase(x1)"/>
					<Constant dataType="string">many</Constant>
					<Constant dataType="double">5.574710978503383</Constant>
				</Apply>
			</DerivedField>
			<DerivedField name="tf-idf(lowercase(x1), map)" optype="continuous" dataType="double">
				<Apply function="tf-idf(lowercase(x1))">
					<FieldRef field="lowercase(x1)"/>
					<Constant dataType="string">map</Constant>
					<Constant dataType="double">5.574710978503383</Constant>
				</Apply>
			</DerivedField>
			<DerivedField name="tf-idf(lowercase(x1), mattson)" optype="continuous" dataType="double">
				<Apply function="tf-idf(lowercase(x1))">
					<FieldRef field="lowercase(x1)"/>
					<Constant dataType="string">mattson</Constant>
					<Constant dataType="double">4.476098689835274</Constant>
				</Apply>
			</DerivedField>
			<DerivedField name="tf-idf(lowercase(x1), me)" optype="continuous" dataType="double">
				<Apply function="tf-idf(lowercase(x1))">
					<FieldRef field="lowercase(x1)"/>
					<Constant dataType="string">me</Constant>
					<Constant dataType="double">4.188416617383492</Constant>
				</Apply>
			</DerivedField>
			<DerivedField name="tf-idf(lowercase(x1), mean)" optype="continuous" dataType="double">
				<Apply function="tf-idf(lowercase(x1))">
					<FieldRef field="lowercase(x1)"/>
					<Constant dataType="string">mean</Constant>
					<Constant dataType="double">5.574710978503383</Constant>
				</Apply>
			</DerivedField>
			<DerivedField name="tf-idf(lowercase(x1), miles)" optype="continuous" dataType="double">
				<Apply function="tf-idf(lowercase(x1))">
					<FieldRef field="lowercase(x1)"/>
					<Constant dataType="string">miles</Constant>
					<Constant dataType="double">5.574710978503383</Constant>
				</Apply>
			</DerivedField>
			<DerivedField name="tf-idf(lowercase(x1), moist)" optype="continuous" dataType="double">
				<Apply function="tf-idf(lowercase(x1))">
					<FieldRef field="lowercase(x1)"/>
					<Constant dataType="string">moist</Constant>
					<Constant dataType="double">5.574710978503383</Constant>
				</Apply>
			</DerivedField>
			<DerivedField name="tf-idf(lowercase(x1), much)" optype="continuous" dataType="double">
				<Apply function="tf-idf(lowercase(x1))">
					<FieldRef field="lowercase(x1)"/>
					<Constant dataType="string">much</Constant>
					<Constant dataType="double">4.881563797943437</Constant>
				</Apply>
			</DerivedField>
			<DerivedField name="tf-idf(lowercase(x1), my)" optype="continuous" dataType="double">
				<Apply function="tf-idf(lowercase(x1))">
					<FieldRef field="lowercase(x1)"/>
					<Constant dataType="string">my</Constant>
					<Constant dataType="double">4.658420246629228</Constant>
				</Apply>
			</DerivedField>
			<DerivedField name="tf-idf(lowercase(x1), name)" optype="continuous" dataType="double">
				<Apply function="tf-idf(lowercase(x1))">
					<FieldRef field="lowercase(x1)"/>
					<Constant dataType="string">name</Constant>
					<Constant dataType="double">4.476098689835274</Constant>
				</Apply>
			</DerivedField>
			<DerivedField name="tf-idf(lowercase(x1), nate)" optype="continuous" dataType="double">
				<Apply function="tf-idf(lowercase(x1))">
					<FieldRef field="lowercase(x1)"/>
					<Constant dataType="string">nate</Constant>
					<Constant dataType="double">4.321948010008015</Constant>
				</Apply>
			</DerivedField>
			<DerivedField name="tf-idf(lowercase(x1), need)" optype="continuous" dataType="double">
				<Apply function="tf-idf(lowercase(x1))">
					<FieldRef field="lowercase(x1)"/>
					<Constant dataType="string">need</Constant>
					<Constant dataType="double">5.574710978503383</Constant>
				</Apply>
			</DerivedField>
			<DerivedField name="tf-idf(lowercase(x1), next)" optype="continuous" dataType="double">
				<Apply function="tf-idf(lowercase(x1))">
					<FieldRef field="lowercase(x1)"/>
					<Constant dataType="string">next</Constant>
					<Constant dataType="double">5.169245870395218</Constant>
				</Apply>
			</DerivedField>
			<DerivedField name="tf-idf(lowercase(x1), nice)" optype="continuous" dataType="double">
				<Apply function="tf-idf(lowercase(x1))">
					<FieldRef field="lowercase(x1)"/>
					<Constant dataType="string">nice</Constant>
					<Constant dataType="double">5.574710978503383</Constant>
				</Apply>
			</DerivedField>
			<DerivedField name="tf-idf(lowercase(x1), now)" optype="continuous" dataType="double">
				<Apply function="tf-idf(lowercase(x1))">
					<FieldRef field="lowercase(x1)"/>
					<Constant dataType="string">now</Constant>
					<Constant dataType="double">5.574710978503383</Constant>
				</Apply>
			</DerivedField>
			<DerivedField name="tf-idf(lowercase(x1), npcs)" optype="continuous" dataType="double">
				<Apply function="tf-idf(lowercase(x1))">
					<FieldRef field="lowercase(x1)"/>
					<Constant dataType="string">npcs</Constant>
					<Constant dataType="double">5.574710978503383</Constant>
				</Apply>
			</DerivedField>
			<DerivedField name="tf-idf(lowercase(x1), observation)" optype="continuous" dataType="double">
				<Apply function="tf-idf(lowercase(x1))">
					<FieldRef field="lowercase(x1)"/>
					<Constant dataType="string">observation</Constant>
					<Constant dataType="double">5.169245870395218</Constant>
				</Apply>
			</DerivedField>
			<DerivedField name="tf-idf(lowercase(x1), observe)" optype="continuous" dataType="double">
				<Apply function="tf-idf(lowercase(x1))">
					<FieldRef field="lowercase(x1)"/>
					<Constant dataType="string">observe</Constant>
					<Constant dataType="double">5.574710978503383</Constant>
				</Apply>
			</DerivedField>
			<DerivedField name="tf-idf(lowercase(x1), ocean)" optype="continuous" dataType="double">
				<Apply function="tf-idf(lowercase(x1))">
					<FieldRef field="lowercase(x1)"/>
					<Constant dataType="string">ocean</Constant>
					<Constant dataType="double">5.169245870395218</Constant>
				</Apply>
			</DerivedField>
			<DerivedField name="tf-idf(lowercase(x1), of)" optype="continuous" dataType="double">
				<Apply function="tf-idf(lowercase(x1))">
					<FieldRef field="lowercase(x1)"/>
					<Constant dataType="string">of</Constant>
					<Constant dataType="double">4.476098689835274</Constant>
				</Apply>
			</DerivedField>
			<DerivedField name="tf-idf(lowercase(x1), off)" optype="continuous" dataType="double">
				<Apply function="tf-idf(lowercase(x1))">
					<FieldRef field="lowercase(x1)"/>
					<Constant dataType="string">off</Constant>
					<Constant dataType="double">5.574710978503383</Constant>
				</Apply>
			</DerivedField>
			<DerivedField name="tf-idf(lowercase(x1), old)" optype="continuous" dataType="double">
				<Apply function="tf-idf(lowercase(x1))">
					<FieldRef field="lowercase(x1)"/>
					<Constant dataType="string">old</Constant>
					<Constant dataType="double">5.574710978503383</Constant>
				</Apply>
			</DerivedField>
			<DerivedField name="tf-idf(lowercase(x1), on)" optype="continuous" dataType="double">
				<Apply function="tf-idf(lowercase(x1))">
					<FieldRef field="lowercase(x1)"/>
					<Constant dataType="string">on</Constant>
					<Constant dataType="double">3.223335721339905</Constant>
				</Apply>
			</DerivedField>
			<DerivedField name="tf-idf(lowercase(x1), orbit)" optype="continuous" dataType="double">
				<Apply function="tf-idf(lowercase(x1))">
					<FieldRef field="lowercase(x1)"/>
					<Constant dataType="string">orbit</Constant>
					<Constant dataType="double">5.574710978503383</Constant>
				</Apply>
			</DerivedField>
			<DerivedField name="tf-idf(lowercase(x1), oxygen)" optype="continuous" dataType="double">
				<Apply function="tf-idf(lowercase(x1))">
					<FieldRef field="lowercase(x1)"/>
					<Constant dataType="string">oxygen</Constant>
					<Constant dataType="double">5.169245870395218</Constant>
				</Apply>
			</DerivedField>
			<DerivedField name="tf-idf(lowercase(x1), passions)" optype="continuous" dataType="double">
				<Apply function="tf-idf(lowercase(x1))">
					<FieldRef field="lowercase(x1)"/>
					<Constant dataType="string">passions</Constant>
					<Constant dataType="double">5.574710978503383</Constant>
				</Apply>
			</DerivedField>
			<DerivedField name="tf-idf(lowercase(x1), people)" optype="continuous" dataType="double">
				<Apply function="tf-idf(lowercase(x1))">
					<FieldRef field="lowercase(x1)"/>
					<Constant dataType="string">people</Constant>
					<Constant dataType="double">5.574710978503383</Constant>
				</Apply>
			</DerivedField>
			<DerivedField name="tf-idf(lowercase(x1), planet)" optype="continuous" dataType="double">
				<Apply function="tf-idf(lowercase(x1))">
					<FieldRef field="lowercase(x1)"/>
					<Constant dataType="string">planet</Constant>
					<Constant dataType="double">3.048982334195127</Constant>
				</Apply>
			</DerivedField>
			<DerivedField name="tf-idf(lowercase(x1), plates)" optype="continuous" dataType="double">
				<Apply function="tf-idf(lowercase(x1))">
					<FieldRef field="lowercase(x1)"/>
					<Constant dataType="string">plates</Constant>
					<Constant dataType="double">5.574710978503383</Constant>
				</Apply>
			</DerivedField>
			<DerivedField name="tf-idf(lowercase(x1), player)" optype="continuous" dataType="double">
				<Apply function="tf-idf(lowercase(x1))">
					<FieldRef field="lowercase(x1)"/>
					<Constant dataType="string">player</Constant>
					<Constant dataType="double">5.574710978503383</Constant>
				</Apply>
			</DerivedField>
			<DerivedField name="tf-idf(lowercase(x1), pool1)" optype="continuous" dataType="double">
				<Apply function="tf-idf(lowercase(x1))">
					<FieldRef field="lowercase(x1)"/>
					<Constant dataType="string">pool1</Constant>
					<Constant dataType="double">5.574710978503383</Constant>
				</Apply>
			</DerivedField>
			<DerivedField name="tf-idf(lowercase(x1), pressure)" optype="continuous" dataType="double">
				<Apply function="tf-idf(lowercase(x1))">
					<FieldRef field="lowercase(x1)"/>
					<Constant dataType="string">pressure</Constant>
					<Constant dataType="double">5.169245870395218</Constant>
				</Apply>
			</DerivedField>
			<DerivedField name="tf-idf(lowercase(x1), progress)" optype="continuous" dataType="double">
				<Apply function="tf-idf(lowercase(x1))">
					<FieldRef field="lowercase(x1)"/>
					<Constant dataType="string">progress</Constant>
					<Constant dataType="double">5.574710978503383</Constant>
				</Apply>
			</DerivedField>
			<DerivedField name="tf-idf(lowercase(x1), prospector)" optype="continuous" dataType="double">
				<Apply function="tf-idf(lowercase(x1))">
					<FieldRef field="lowercase(x1)"/>
					<Constant dataType="string">prospector</Constant>
					<Constant dataType="double">4.476098689835274</Constant>
				</Apply>
			</DerivedField>
			<DerivedField name="tf-idf(lowercase(x1), pulling)" optype="continuous" dataType="double">
				<Apply function="tf-idf(lowercase(x1))">
					<FieldRef field="lowercase(x1)"/>
					<Constant dataType="string">pulling</Constant>
					<Constant dataType="double">5.574710978503383</Constant>
				</Apply>
			</DerivedField>
			<DerivedField name="tf-idf(lowercase(x1), pushed)" optype="continuous" dataType="double">
				<Apply function="tf-idf(lowercase(x1))">
					<FieldRef field="lowercase(x1)"/>
					<Constant dataType="string">pushed</Constant>
					<Constant dataType="double">5.574710978503383</Constant>
				</Apply>
			</DerivedField>
			<DerivedField name="tf-idf(lowercase(x1), quest)" optype="continuous" dataType="double">
				<Apply function="tf-idf(lowercase(x1))">
					<FieldRef field="lowercase(x1)"/>
					<Constant dataType="string">quest</Constant>
					<Constant dataType="double">5.574710978503383</Constant>
				</Apply>
			</DerivedField>
			<DerivedField name="tf-idf(lowercase(x1), radiation)" optype="continuous" dataType="double">
				<Apply function="tf-idf(lowercase(x1))">
					<FieldRef field="lowercase(x1)"/>
					<Constant dataType="string">radiation</Constant>
					<Constant dataType="double">5.169245870395218</Constant>
				</Apply>
			</DerivedField>
			<DerivedField name="tf-idf(lowercase(x1), radius)" optype="continuous" dataType="double">
				<Apply function="tf-idf(lowercase(x1))">
					<FieldRef field="lowercase(x1)"/>
					<Constant dataType="string">radius</Constant>
					<Constant dataType="double">4.881563797943437</Constant>
				</Apply>
			</DerivedField>
			<DerivedField name="tf-idf(lowercase(x1), rays)" optype="continuous" dataType="double">
				<Apply function="tf-idf(lowercase(x1))">
					<FieldRef field="lowercase(x1)"/>
					<Constant dataType="string">rays</Constant>
					<Constant dataType="double">4.881563797943437</Constant>
				</Apply>
			</DerivedField>
			<DerivedField name="tf-idf(lowercase(x1), researcher)" optype="continuous" dataType="double">
				<Apply function="tf-idf(lowercase(x1))">
					<FieldRef field="lowercase(x1)"/>
					<Constant dataType="string">researcher</Constant>
					<Constant dataType="double">5.574710978503383</Constant>
				</Apply>
			</DerivedField>
			<DerivedField name="tf-idf(lowercase(x1), robot)" optype="continuous" dataType="double">
				<Apply function="tf-idf(lowercase(x1))">
					<FieldRef field="lowercase(x1)"/>
					<Constant dataType="string">robot</Constant>
					<Constant dataType="double">4.658420246629228</Constant>
				</Apply>
			</DerivedField>
			<DerivedField name="tf-idf(lowercase(x1), rotate)" optype="continuous" dataType="double">
				<Apply function="tf-idf(lowercase(x1))">
					<FieldRef field="lowercase(x1)"/>
					<Constant dataType="string">rotate</Constant>
					<Constant dataType="double">5.574710978503383</Constant>
				</Apply>
			</DerivedField>
			<DerivedField name="tf-idf(lowercase(x1), rotation)" optype="continuous" dataType="double">
				<Apply function="tf-idf(lowercase(x1))">
					<FieldRef field="lowercase(x1)"/>
					<Constant dataType="string">rotation</Constant>
					<Constant dataType="double">5.574710978503383</Constant>
				</Apply>
			</DerivedField>
			<DerivedField name="tf-idf(lowercase(x1), saige)" optype="continuous" dataType="double">
				<Apply function="tf-idf(lowercase(x1))">
					<FieldRef field="lowercase(x1)"/>
					<Constant dataType="string">saige</Constant>
					<Constant dataType="double">4.476098689835274</Constant>
				</Apply>
			</DerivedField>
			<DerivedField name="tf-idf(lowercase(x1), scientist)" optype="continuous" dataType="double">
				<Apply function="tf-idf(lowercase(x1))">
					<FieldRef field="lowercase(x1)"/>
					<Constant dataType="string">scientist</Constant>
					<Constant dataType="double">5.574710978503383</Constant>
				</Apply>
			</DerivedField>
			<DerivedField name="tf-idf(lowercase(x1), see)" optype="continuous" dataType="double">
				<Apply function="tf-idf(lowercase(x1))">
					<FieldRef field="lowercase(x1)"/>
					<Constant dataType="string">see</Constant>
					<Constant dataType="double">5.574710978503383</Constant>
				</Apply>
			</DerivedField>
			<DerivedField name="tf-idf(lowercase(x1), seismic)" optype="continuous" dataType="double">
				<Apply function="tf-idf(lowercase(x1))">
					<FieldRef field="lowercase(x1)"/>
					<Constant dataType="string">seismic</Constant>
					<Constant dataType="double">5.169245870395218</Constant>
				</Apply>
			</DerivedField>
			<DerivedField name="tf-idf(lowercase(x1), should)" optype="continuous" dataType="double">
				<Apply function="tf-idf(lowercase(x1))">
					<FieldRef field="lowercase(x1)"/>
					<Constant dataType="string">should</Constant>
					<Constant dataType="double">5.574710978503383</Constant>
				</Apply>
			</DerivedField>
			<DerivedField name="tf-idf(lowercase(x1), sick)" optype="continuous" dataType="double">
				<Apply function="tf-idf(lowercase(x1))">
					<FieldRef field="lowercase(x1)"/>
					<Constant dataType="string">sick</Constant>
					<Constant dataType="double">5.574710978503383</Constant>
				</Apply>
			</DerivedField>
			<DerivedField name="tf-idf(lowercase(x1), something)" optype="continuous" dataType="double">
				<Apply function="tf-idf(lowercase(x1))">
					<FieldRef field="lowercase(x1)"/>
					<Constant dataType="string">something</Constant>
					<Constant dataType="double">5.169245870395218</Constant>
				</Apply>
			</DerivedField>
			<DerivedField name="tf-idf(lowercase(x1), speak)" optype="continuous" dataType="double">
				<Apply function="tf-idf(lowercase(x1))">
					<FieldRef field="lowercase(x1)"/>
					<Constant dataType="string">speak</Constant>
					<Constant dataType="double">5.574710978503383</Constant>
				</Apply>
			</DerivedField>
			<DerivedField name="tf-idf(lowercase(x1), speed)" optype="continuous" dataType="double">
				<Apply function="tf-idf(lowercase(x1))">
					<FieldRef field="lowercase(x1)"/>
					<Constant dataType="string">speed</Constant>
					<Constant dataType="double">5.574710978503383</Constant>
				</Apply>
			</DerivedField>
			<DerivedField name="tf-idf(lowercase(x1), start)" optype="continuous" dataType="double">
				<Apply function="tf-idf(lowercase(x1))">
					<FieldRef field="lowercase(x1)"/>
					<Constant dataType="string">start</Constant>
					<Constant dataType="double">5.574710978503383</Constant>
				</Apply>
			</DerivedField>
			<DerivedField name="tf-idf(lowercase(x1), sun)" optype="continuous" dataType="double">
				<Apply function="tf-idf(lowercase(x1))">
					<FieldRef field="lowercase(x1)"/>
					<Constant dataType="string">sun</Constant>
					<Constant dataType="double">5.574710978503383</Constant>
				</Apply>
			</DerivedField>
			<DerivedField name="tf-idf(lowercase(x1), surveyor)" optype="continuous" dataType="double">
				<Apply function="tf-idf(lowercase(x1))">
					<FieldRef field="lowercase(x1)"/>
					<Constant dataType="string">surveyor</Constant>
					<Constant dataType="double">4.476098689835274</Constant>
				</Apply>
			</DerivedField>
			<DerivedField name="tf-idf(lowercase(x1), take)" optype="continuous" dataType="double">
				<Apply function="tf-idf(lowercase(x1))">
					<FieldRef field="lowercase(x1)"/>
					<Constant dataType="string">take</Constant>
					<Constant dataType="double">5.169245870395218</Constant>
				</Apply>
			</DerivedField>
			<DerivedField name="tf-idf(lowercase(x1), talk)" optype="continuous" dataType="double">
				<Apply function="tf-idf(lowercase(x1))">
					<FieldRef field="lowercase(x1)"/>
					<Constant dataType="string">talk</Constant>
					<Constant dataType="double">5.574710978503383</Constant>
				</Apply>
			</DerivedField>
			<DerivedField name="tf-idf(lowercase(x1), talking)" optype="continuous" dataType="double">
				<Apply function="tf-idf(lowercase(x1))">
					<FieldRef field="lowercase(x1)"/>
					<Constant dataType="string">talking</Constant>
					<Constant dataType="double">5.574710978503383</Constant>
				</Apply>
			</DerivedField>
			<DerivedField name="tf-idf(lowercase(x1), tectonic)" optype="continuous" dataType="double">
				<Apply function="tf-idf(lowercase(x1))">
					<FieldRef field="lowercase(x1)"/>
					<Constant dataType="string">tectonic</Constant>
					<Constant dataType="double">5.169245870395218</Constant>
				</Apply>
			</DerivedField>
			<DerivedField name="tf-idf(lowercase(x1), tektounic)" optype="continuous" dataType="double">
				<Apply function="tf-idf(lowercase(x1))">
					<FieldRef field="lowercase(x1)"/>
					<Constant dataType="string">tektounic</Constant>
					<Constant dataType="double">5.574710978503383</Constant>
				</Apply>
			</DerivedField>
			<DerivedField name="tf-idf(lowercase(x1), tell)" optype="continuous" dataType="double">
				<Apply function="tf-idf(lowercase(x1))">
					<FieldRef field="lowercase(x1)"/>
					<Constant dataType="string">tell</Constant>
					<Constant dataType="double">5.169245870395218</Constant>
				</Apply>
			</DerivedField>
			<DerivedField name="tf-idf(lowercase(x1), temp)" optype="continuous" dataType="double">
				<Apply function="tf-idf(lowercase(x1))">
					<FieldRef field="lowercase(x1)"/>
					<Constant dataType="string">temp</Constant>
					<Constant dataType="double">5.574710978503383</Constant>
				</Apply>
			</DerivedField>
			<DerivedField name="tf-idf(lowercase(x1), temperature)" optype="continuous" dataType="double">
				<Apply function="tf-idf(lowercase(x1))">
					<FieldRef field="lowercase(x1)"/>
					<Constant dataType="string">temperature</Constant>
					<Constant dataType="double">5.574710978503383</Constant>
				</Apply>
			</DerivedField>
			<DerivedField name="tf-idf(lowercase(x1), that)" optype="continuous" dataType="double">
				<Apply function="tf-idf(lowercase(x1))">
					<FieldRef field="lowercase(x1)"/>
					<Constant dataType="string">that</Constant>
					<Constant dataType="double">5.574710978503383</Constant>
				</Apply>
			</DerivedField>
			<DerivedField name="tf-idf(lowercase(x1), the)" optype="continuous" dataType="double">
				<Apply function="tf-idf(lowercase(x1))">
					<FieldRef field="lowercase(x1)"/>
					<Constant dataType="string">the</Constant>
					<Constant dataType="double">2.156984294890017</Constant>
				</Apply>
			</DerivedField>
			<DerivedField name="tf-idf(lowercase(x1), their)" optype="continuous" dataType="double">
				<Apply function="tf-idf(lowercase(x1))">
					<FieldRef field="lowercase(x1)"/>
					<Constant dataType="string">their</Constant>
					<Constant dataType="double">3.7029088016017915</Constant>
				</Apply>
			</DerivedField>
			<DerivedField name="tf-idf(lowercase(x1), there)" optype="continuous" dataType="double">
				<Apply function="tf-idf(lowercase(x1))">
					<FieldRef field="lowercase(x1)"/>
					<Constant dataType="string">there</Constant>
					<Constant dataType="double">5.169245870395218</Constant>
				</Apply>
			</DerivedField>
			<DerivedField name="tf-idf(lowercase(x1), theron)" optype="continuous" dataType="double">
				<Apply function="tf-idf(lowercase(x1))">
					<FieldRef field="lowercase(x1)"/>
					<Constant dataType="string">theron</Constant>
					<Constant dataType="double">4.476098689835274</Constant>
				</Apply>
			</DerivedField>
			<DerivedField name="tf-idf(lowercase(x1), this)" optype="continuous" dataType="double">
				<Apply function="tf-idf(lowercase(x1))">
					<FieldRef field="lowercase(x1)"/>
					<Constant dataType="string">this</Constant>
					<Constant dataType="double">3.1323639431341785</Constant>
				</Apply>
			</DerivedField>
			<DerivedField name="tf-idf(lowercase(x1), tide)" optype="continuous" dataType="double">
				<Apply function="tf-idf(lowercase(x1))">
					<FieldRef field="lowercase(x1)"/>
					<Constant dataType="string">tide</Constant>
					<Constant dataType="double">5.169245870395218</Constant>
				</Apply>
			</DerivedField>
			<DerivedField name="tf-idf(lowercase(x1), tides)" optype="continuous" dataType="double">
				<Apply function="tf-idf(lowercase(x1))">
					<FieldRef field="lowercase(x1)"/>
					<Constant dataType="string">tides</Constant>
					<Constant dataType="double">5.574710978503383</Constant>
				</Apply>
			</DerivedField>
			<DerivedField name="tf-idf(lowercase(x1), tilt)" optype="continuous" dataType="double">
				<Apply function="tf-idf(lowercase(x1))">
					<FieldRef field="lowercase(x1)"/>
					<Constant dataType="string">tilt</Constant>
					<Constant dataType="double">4.881563797943437</Constant>
				</Apply>
			</DerivedField>
			<DerivedField name="tf-idf(lowercase(x1), to)" optype="continuous" dataType="double">
				<Apply function="tf-idf(lowercase(x1))">
					<FieldRef field="lowercase(x1)"/>
					<Constant dataType="string">to</Constant>
					<Constant dataType="double">3.7029088016017915</Constant>
				</Apply>
			</DerivedField>
			<DerivedField name="tf-idf(lowercase(x1), together)" optype="continuous" dataType="double">
				<Apply function="tf-idf(lowercase(x1))">
					<FieldRef field="lowercase(x1)"/>
					<Constant dataType="string">together</Constant>
					<Constant dataType="double">5.574710978503383</Constant>
				</Apply>
			</DerivedField>
			<DerivedField name="tf-idf(lowercase(x1), up)" optype="continuous" dataType="double">
				<Apply function="tf-idf(lowercase(x1))">
					<FieldRef field="lowercase(x1)"/>
					<Constant dataType="string">up</Constant>
					<Constant dataType="double">5.169245870395218</Constant>
				</Apply>
			</DerivedField>
			<DerivedField name="tf-idf(lowercase(x1), want)" optype="continuous" dataType="double">
				<Apply function="tf-idf(lowercase(x1))">
					<FieldRef field="lowercase(x1)"/>
					<Constant dataType="string">want</Constant>
					<Constant dataType="double">5.574710978503383</Constant>
				</Apply>
			</DerivedField>
			<DerivedField name="tf-idf(lowercase(x1), water)" optype="continuous" dataType="double">
				<Apply function="tf-idf(lowercase(x1))">
					<FieldRef field="lowercase(x1)"/>
					<Constant dataType="string">water</Constant>
					<Constant dataType="double">5.169245870395218</Constant>
				</Apply>
			</DerivedField>
			<DerivedField name="tf-idf(lowercase(x1), wave)" optype="continuous" dataType="double">
				<Apply function="tf-idf(lowercase(x1))">
					<FieldRef field="lowercase(x1)"/>
					<Constant dataType="string">wave</Constant>
					<Constant dataType="double">5.574710978503383</Constant>
				</Apply>
			</DerivedField>
			<DerivedField name="tf-idf(lowercase(x1), we)" optype="continuous" dataType="double">
				<Apply function="tf-idf(lowercase(x1))">
					<FieldRef field="lowercase(x1)"/>
					<Constant dataType="string">we</Constant>
					<Constant dataType="double">5.574710978503383</Constant>
				</Apply>
			</DerivedField>
			<DerivedField name="tf-idf(lowercase(x1), what)" optype="continuous" dataType="double">
				<Apply function="tf-idf(lowercase(x1))">
					<FieldRef field="lowercase(x1)"/>
					<Constant dataType="string">what</Constant>
					<Constant dataType="double">2.3966571481554375</Constant>
				</Apply>
			</DerivedField>
			<DerivedField name="tf-idf(lowercase(x1), what's)" optype="continuous" dataType="double">
				<Apply function="tf-idf(lowercase(x1))">
					<FieldRef field="lowercase(x1)"/>
					<Constant dataType="string">what's</Constant>
					<Constant dataType="double">4.476098689835274</Constant>
				</Apply>
			</DerivedField>
			<DerivedField name="tf-idf(lowercase(x1), where)" optype="continuous" dataType="double">
				<Apply function="tf-idf(lowercase(x1))">
					<FieldRef field="lowercase(x1)"/>
					<Constant dataType="string">where</Constant>
					<Constant dataType="double">3.434644815007112</Constant>
				</Apply>
			</DerivedField>
			<DerivedField name="tf-idf(lowercase(x1), where's)" optype="continuous" dataType="double">
				<Apply function="tf-idf(lowercase(x1))">
					<FieldRef field="lowercase(x1)"/>
					<Constant dataType="string">where's</Constant>
					<Constant dataType="double">3.6288008294480694</Constant>
				</Apply>
			</DerivedField>
			<DerivedField name="tf-idf(lowercase(x1), who)" optype="continuous" dataType="double">
				<Apply function="tf-idf(lowercase(x1))">
					<FieldRef field="lowercase(x1)"/>
					<Constant dataType="string">who</Constant>
					<Constant dataType="double">3.3774864011671637</Constant>
				</Apply>
			</DerivedField>
			<DerivedField name="tf-idf(lowercase(x1), why)" optype="continuous" dataType="double">
				<Apply function="tf-idf(lowercase(x1))">
					<FieldRef field="lowercase(x1)"/>
					<Constant dataType="string">why</Constant>
					<Constant dataType="double">5.574710978503383</Constant>
				</Apply>
			</DerivedField>
			<DerivedField name="tf-idf(lowercase(x1), wind)" optype="continuous" dataType="double">
				<Apply function="tf-idf(lowercase(x1))">
					<FieldRef field="lowercase(x1)"/>
					<Constant dataType="string">wind</Constant>
					<Constant dataType="double">5.169245870395218</Constant>
				</Apply>
			</DerivedField>
			<DerivedField name="tf-idf(lowercase(x1), would)" optype="continuous" dataType="double">
				<Apply function="tf-idf(lowercase(x1))">
					<FieldRef field="lowercase(x1)"/>
					<Constant dataType="string">would</Constant>
					<Constant dataType="double">5.169245870395218</Constant>
				</Apply>
			</DerivedField>
			<DerivedField name="tf-idf(lowercase(x1), write)" optype="continuous" dataType="double">
				<Apply function="tf-idf(lowercase(x1))">
					<FieldRef field="lowercase(x1)"/>
					<Constant dataType="string">write</Constant>
					<Constant dataType="double">5.574710978503383</Constant>
				</Apply>
			</DerivedField>
			<DerivedField name="tf-idf(lowercase(x1), xenobotanist)" optype="continuous" dataType="double">
				<Apply function="tf-idf(lowercase(x1))">
					<FieldRef field="lowercase(x1)"/>
					<Constant dataType="string">xenobotanist</Constant>
					<Constant dataType="double">4.476098689835274</Constant>
				</Apply>
			</DerivedField>
			<DerivedField name="tf-idf(lowercase(x1), year)" optype="continuous" dataType="double">
				<Apply function="tf-idf(lowercase(x1))">
					<FieldRef field="lowercase(x1)"/>
					<Constant dataType="string">year</Constant>
					<Constant dataType="double">4.881563797943437</Constant>
				</Apply>
			</DerivedField>
			<DerivedField name="tf-idf(lowercase(x1), you)" optype="continuous" dataType="double">
				<Apply function="tf-idf(lowercase(x1))">
					<FieldRef field="lowercase(x1)"/>
					<Constant dataType="string">you</Constant>
					<Constant dataType="double">3.9652730660692823</Constant>
				</Apply>
			</DerivedField>
			<DerivedField name="tf-idf(lowercase(x1), your)" optype="continuous" dataType="double">
				<Apply function="tf-idf(lowercase(x1))">
					<FieldRef field="lowercase(x1)"/>
					<Constant dataType="string">your</Constant>
					<Constant dataType="double">5.169245870395218</Constant>
				</Apply>
			</DerivedField>
			<DerivedField name="tf-idf(lowercase(x1), yourself)" optype="continuous" dataType="double">
				<Apply function="tf-idf(lowercase(x1))">
					<FieldRef field="lowercase(x1)"/>
					<Constant dataType="string">yourself</Constant>
					<Constant dataType="double">5.574710978503383</Constant>
				</Apply>
			</DerivedField>
		</LocalTransformations>
		<NeuralInputs>
			<NeuralInput id="input/1">
				<DerivedField optype="continuous" dataType="double">
					<FieldRef field="tf-idf(lowercase(x1), a)"/>
				</DerivedField>
			</NeuralInput>
			<NeuralInput id="input/2">
				<DerivedField optype="continuous" dataType="double">
					<FieldRef field="tf-idf(lowercase(x1), about)"/>
				</DerivedField>
			</NeuralInput>
			<NeuralInput id="input/3">
				<DerivedField optype="continuous" dataType="double">
					<FieldRef field="tf-idf(lowercase(x1), activity)"/>
				</DerivedField>
			</NeuralInput>
			<NeuralInput id="input/4">
				<DerivedField optype="continuous" dataType="double">
					<FieldRef field="tf-idf(lowercase(x1), agent)"/>
				</DerivedField>
			</NeuralInput>
			<NeuralInput id="input/5">
				<DerivedField optype="continuous" dataType="double">
					<FieldRef field="tf-idf(lowercase(x1), ai)"/>
				</DerivedField>
			</NeuralInput>
			<NeuralInput id="input/6">
				<DerivedField optype="continuous" dataType="double">
					<FieldRef field="tf-idf(lowercase(x1), air)"/>
				</DerivedField>
			</NeuralInput>
			<NeuralInput id="input/7">
				<DerivedField optype="continuous" dataType="double">
					<FieldRef field="tf-idf(lowercase(x1), airflow)"/>
				</DerivedField>
			</NeuralInput>
			<NeuralInput id="input/8">
				<DerivedField optype="continuous" dataType="double">
					<FieldRef field="tf-idf(lowercase(x1), alt)"/>
				</DerivedField>
			</NeuralInput>
			<NeuralInput id="input/9">
				<DerivedField optype="continuous" dataType="double">
					<FieldRef field="tf-idf(lowercase(x1), altitude)"/>
				</DerivedField>
			</NeuralInput>
			<NeuralInput id="input/10">
				<DerivedField optype="continuous" dataType="double">
					<FieldRef field="tf-idf(lowercase(x1), am)"/>
				</DerivedField>
			</NeuralInput>
			<NeuralInput id="input/11">
				<DerivedField optype="continuous" dataType="double">
					<FieldRef field="tf-idf(lowercase(x1), amount)"/>
				</DerivedField>
			</NeuralInput>
			<NeuralInput id="input/12">
				<DerivedField optype="continuous" dataType="double">
					<FieldRef field="tf-idf(lowercase(x1), an)"/>
				</DerivedField>
			</NeuralInput>
			<NeuralInput id="input/13">
				<DerivedField optype="continuous" dataType="double">
					<FieldRef field="tf-idf(lowercase(x1), are)"/>
				</DerivedField>
			</NeuralInput>
			<NeuralInput id="input/14">
				<DerivedField optype="continuous" dataType="double">
					<FieldRef field="tf-idf(lowercase(x1), astronomer)"/>
				</DerivedField>
			</NeuralInput>
			<NeuralInput id="input/15">
				<DerivedField optype="continuous" dataType="double">
					<FieldRef field="tf-idf(lowercase(x1), astrozooligist)"/>
				</DerivedField>
			</NeuralInput>
			<NeuralInput id="input/16">
				<DerivedField optype="continuous" dataType="double">
					<FieldRef field="tf-idf(lowercase(x1), at)"/>
				</DerivedField>
			</NeuralInput>
			<NeuralInput id="input/17">
				<DerivedField optype="continuous" dataType="double">
					<FieldRef field="tf-idf(lowercase(x1), atmosphere)"/>
				</DerivedField>
			</NeuralInput>
			<NeuralInput id="input/18">
				<DerivedField optype="continuous" dataType="double">
					<FieldRef field="tf-idf(lowercase(x1), axial)"/>
				</DerivedField>
			</NeuralInput>
			<NeuralInput id="input/19">
				<DerivedField optype="continuous" dataType="double">
					<FieldRef field="tf-idf(lowercase(x1), axis)"/>
				</DerivedField>
			</NeuralInput>
			<NeuralInput id="input/20">
				<DerivedField optype="continuous" dataType="double">
					<FieldRef field="tf-idf(lowercase(x1), back)"/>
				</DerivedField>
			</NeuralInput>
			<NeuralInput id="input/21">
				<DerivedField optype="continuous" dataType="double">
					<FieldRef field="tf-idf(lowercase(x1), be)"/>
				</DerivedField>
			</NeuralInput>
			<NeuralInput id="input/22">
				<DerivedField optype="continuous" dataType="double">
					<FieldRef field="tf-idf(lowercase(x1), being)"/>
				</DerivedField>
			</NeuralInput>
			<NeuralInput id="input/23">
				<DerivedField optype="continuous" dataType="double">
					<FieldRef field="tf-idf(lowercase(x1), big)"/>
				</DerivedField>
			</NeuralInput>
			<NeuralInput id="input/24">
				<DerivedField optype="continuous" dataType="double">
					<FieldRef field="tf-idf(lowercase(x1), body)"/>
				</DerivedField>
			</NeuralInput>
			<NeuralInput id="input/25">
				<DerivedField optype="continuous" dataType="double">
					<FieldRef field="tf-idf(lowercase(x1), breath)"/>
				</DerivedField>
			</NeuralInput>
			<NeuralInput id="input/26">
				<DerivedField optype="continuous" dataType="double">
					<FieldRef field="tf-idf(lowercase(x1), bye)"/>
				</DerivedField>
			</NeuralInput>
			<NeuralInput id="input/27">
				<DerivedField optype="continuous" dataType="double">
					<FieldRef field="tf-idf(lowercase(x1), can)"/>
				</DerivedField>
			</NeuralInput>
			<NeuralInput id="input/28">
				<DerivedField optype="continuous" dataType="double">
					<FieldRef field="tf-idf(lowercase(x1), carmichael)"/>
				</DerivedField>
			</NeuralInput>
			<NeuralInput id="input/29">
				<DerivedField optype="continuous" dataType="double">
					<FieldRef field="tf-idf(lowercase(x1), celcius)"/>
				</DerivedField>
			</NeuralInput>
			<NeuralInput id="input/30">
				<DerivedField optype="continuous" dataType="double">
					<FieldRef field="tf-idf(lowercase(x1), chemist)"/>
				</DerivedField>
			</NeuralInput>
			<NeuralInput id="input/31">
				<DerivedField optype="continuous" dataType="double">
					<FieldRef field="tf-idf(lowercase(x1), content)"/>
				</DerivedField>
			</NeuralInput>
			<NeuralInput id="input/32">
				<DerivedField optype="continuous" dataType="double">
					<FieldRef field="tf-idf(lowercase(x1), contents)"/>
				</DerivedField>
			</NeuralInput>
			<NeuralInput id="input/33">
				<DerivedField optype="continuous" dataType="double">
					<FieldRef field="tf-idf(lowercase(x1), cosmic)"/>
				</DerivedField>
			</NeuralInput>
			<NeuralInput id="input/34">
				<DerivedField optype="continuous" dataType="double">
					<FieldRef field="tf-idf(lowercase(x1), crushed)"/>
				</DerivedField>
			</NeuralInput>
			<NeuralInput id="input/35">
				<DerivedField optype="continuous" dataType="double">
					<FieldRef field="tf-idf(lowercase(x1), day)"/>
				</DerivedField>
			</NeuralInput>
			<NeuralInput id="input/36">
				<DerivedField optype="continuous" dataType="double">
					<FieldRef field="tf-idf(lowercase(x1), days)"/>
				</DerivedField>
			</NeuralInput>
			<NeuralInput id="input/37">
				<DerivedField optype="continuous" dataType="double">
					<FieldRef field="tf-idf(lowercase(x1), direct)"/>
				</DerivedField>
			</NeuralInput>
			<NeuralInput id="input/38">
				<DerivedField optype="continuous" dataType="double">
					<FieldRef field="tf-idf(lowercase(x1), directions)"/>
				</DerivedField>
			</NeuralInput>
			<NeuralInput id="input/39">
				<DerivedField optype="continuous" dataType="double">
					<FieldRef field="tf-idf(lowercase(x1), do)"/>
				</DerivedField>
			</NeuralInput>
			<NeuralInput id="input/40">
				<DerivedField optype="continuous" dataType="double">
					<FieldRef field="tf-idf(lowercase(x1), does)"/>
				</DerivedField>
			</NeuralInput>
			<NeuralInput id="input/41">
				<DerivedField optype="continuous" dataType="double">
					<FieldRef field="tf-idf(lowercase(x1), down)"/>
				</DerivedField>
			</NeuralInput>
			<NeuralInput id="input/42">
				<DerivedField optype="continuous" dataType="double">
					<FieldRef field="tf-idf(lowercase(x1), energy)"/>
				</DerivedField>
			</NeuralInput>
			<NeuralInput id="input/43">
				<DerivedField optype="continuous" dataType="double">
					<FieldRef field="tf-idf(lowercase(x1), engineer)"/>
				</DerivedField>
			</NeuralInput>
			<NeuralInput id="input/44">
				<DerivedField optype="continuous" dataType="double">
					<FieldRef field="tf-idf(lowercase(x1), eric)"/>
				</DerivedField>
			</NeuralInput>
			<NeuralInput id="input/45">
				<DerivedField optype="continuous" dataType="double">
					<FieldRef field="tf-idf(lowercase(x1), exerted)"/>
				</DerivedField>
			</NeuralInput>
			<NeuralInput id="input/46">
				<DerivedField optype="continuous" dataType="double">
					<FieldRef field="tf-idf(lowercase(x1), exonaut)"/>
				</DerivedField>
			</NeuralInput>
			<NeuralInput id="input/47">
				<DerivedField optype="continuous" dataType="double">
					<FieldRef field="tf-idf(lowercase(x1), exoplanet)"/>
				</DerivedField>
			</NeuralInput>
			<NeuralInput id="input/48">
				<DerivedField optype="continuous" dataType="double">
					<FieldRef field="tf-idf(lowercase(x1), explorer)"/>
				</DerivedField>
			</NeuralInput>
			<NeuralInput id="input/49">
				<DerivedField optype="continuous" dataType="double">
					<FieldRef field="tf-idf(lowercase(x1), fahrenheit)"/>
				</DerivedField>
			</NeuralInput>
			<NeuralInput id="input/50">
				<DerivedField optype="continuous" dataType="double">
					<FieldRef field="tf-idf(lowercase(x1), fall)"/>
				</DerivedField>
			</NeuralInput>
			<NeuralInput id="input/51">
				<DerivedField optype="continuous" dataType="double">
					<FieldRef field="tf-idf(lowercase(x1), far)"/>
				</DerivedField>
			</NeuralInput>
			<NeuralInput id="input/52">
				<DerivedField optype="continuous" dataType="double">
					<FieldRef field="tf-idf(lowercase(x1), fast)"/>
				</DerivedField>
			</NeuralInput>
			<NeuralInput id="input/53">
				<DerivedField optype="continuous" dataType="double">
					<FieldRef field="tf-idf(lowercase(x1), field)"/>
				</DerivedField>
			</NeuralInput>
			<NeuralInput id="input/54">
				<DerivedField optype="continuous" dataType="double">
					<FieldRef field="tf-idf(lowercase(x1), find)"/>
				</DerivedField>
			</NeuralInput>
			<NeuralInput id="input/55">
				<DerivedField optype="continuous" dataType="double">
					<FieldRef field="tf-idf(lowercase(x1), fo)"/>
				</DerivedField>
			</NeuralInput>
			<NeuralInput id="input/56">
				<DerivedField optype="continuous" dataType="double">
					<FieldRef field="tf-idf(lowercase(x1), following)"/>
				</DerivedField>
			</NeuralInput>
			<NeuralInput id="input/57">
				<DerivedField optype="continuous" dataType="double">
					<FieldRef field="tf-idf(lowercase(x1), for)"/>
				</DerivedField>
			</NeuralInput>
			<NeuralInput id="input/58">
				<DerivedField optype="continuous" dataType="double">
					<FieldRef field="tf-idf(lowercase(x1), force)"/>
				</DerivedField>
			</NeuralInput>
			<NeuralInput id="input/59">
				<DerivedField optype="continuous" dataType="double">
					<FieldRef field="tf-idf(lowercase(x1), friend)"/>
				</DerivedField>
			</NeuralInput>
			<NeuralInput id="input/60">
				<DerivedField optype="continuous" dataType="double">
					<FieldRef field="tf-idf(lowercase(x1), from)"/>
				</DerivedField>
			</NeuralInput>
			<NeuralInput id="input/61">
				<DerivedField optype="continuous" dataType="double">
					<FieldRef field="tf-idf(lowercase(x1), galvin)"/>
				</DerivedField>
			</NeuralInput>
			<NeuralInput id="input/62">
				<DerivedField optype="continuous" dataType="double">
					<FieldRef field="tf-idf(lowercase(x1), geologist)"/>
				</DerivedField>
			</NeuralInput>
			<NeuralInput id="input/63">
				<DerivedField optype="continuous" dataType="double">
					<FieldRef field="tf-idf(lowercase(x1), get)"/>
				</DerivedField>
			</NeuralInput>
			<NeuralInput id="input/64">
				<DerivedField optype="continuous" dataType="double">
					<FieldRef field="tf-idf(lowercase(x1), go)"/>
				</DerivedField>
			</NeuralInput>
			<NeuralInput id="input/65">
				<DerivedField optype="continuous" dataType="double">
					<FieldRef field="tf-idf(lowercase(x1), goodbye)"/>
				</DerivedField>
			</NeuralInput>
			<NeuralInput id="input/66">
				<DerivedField optype="continuous" dataType="double">
					<FieldRef field="tf-idf(lowercase(x1), got)"/>
				</DerivedField>
			</NeuralInput>
			<NeuralInput id="input/67">
				<DerivedField optype="continuous" dataType="double">
					<FieldRef field="tf-idf(lowercase(x1), gravity)"/>
				</DerivedField>
			</NeuralInput>
			<NeuralInput id="input/68">
				<DerivedField optype="continuous" dataType="double">
					<FieldRef field="tf-idf(lowercase(x1), height)"/>
				</DerivedField>
			</NeuralInput>
			<NeuralInput id="input/69">
				<DerivedField optype="continuous" dataType="double">
					<FieldRef field="tf-idf(lowercase(x1), hello)"/>
				</DerivedField>
			</NeuralInput>
			<NeuralInput id="input/70">
				<DerivedField optype="continuous" dataType="double">
					<FieldRef field="tf-idf(lowercase(x1), her)"/>
				</DerivedField>
			</NeuralInput>
			<NeuralInput id="input/71">
				<DerivedField optype="continuous" dataType="double">
					<FieldRef field="tf-idf(lowercase(x1), here)"/>
				</DerivedField>
			</NeuralInput>
			<NeuralInput id="input/72">
				<DerivedField optype="continuous" dataType="double">
					<FieldRef field="tf-idf(lowercase(x1), hey)"/>
				</DerivedField>
			</NeuralInput>
			<NeuralInput id="input/73">
				<DerivedField optype="continuous" dataType="double">
					<FieldRef field="tf-idf(lowercase(x1), hi)"/>
				</DerivedField>
			</NeuralInput>
			<NeuralInput id="input/74">
				<DerivedField optype="continuous" dataType="double">
					<FieldRef field="tf-idf(lowercase(x1), high)"/>
				</DerivedField>
			</NeuralInput>
			<NeuralInput id="input/75">
				<DerivedField optype="continuous" dataType="double">
					<FieldRef field="tf-idf(lowercase(x1), hobbies)"/>
				</DerivedField>
			</NeuralInput>
			<NeuralInput id="input/76">
				<DerivedField optype="continuous" dataType="double">
					<FieldRef field="tf-idf(lowercase(x1), hobby)"/>
				</DerivedField>
			</NeuralInput>
			<NeuralInput id="input/77">
				<DerivedField optype="continuous" dataType="double">
					<FieldRef field="tf-idf(lowercase(x1), how)"/>
				</DerivedField>
			</NeuralInput>
			<NeuralInput id="input/78">
				<DerivedField optype="continuous" dataType="double">
					<FieldRef field="tf-idf(lowercase(x1), humid)"/>
				</DerivedField>
			</NeuralInput>
			<NeuralInput id="input/79">
				<DerivedField optype="continuous" dataType="double">
					<FieldRef field="tf-idf(lowercase(x1), humidity)"/>
				</DerivedField>
			</NeuralInput>
			<NeuralInput id="input/80">
				<DerivedField optype="continuous" dataType="double">
					<FieldRef field="tf-idf(lowercase(x1), i)"/>
				</DerivedField>
			</NeuralInput>
			<NeuralInput id="input/81">
				<DerivedField optype="continuous" dataType="double">
					<FieldRef field="tf-idf(lowercase(x1), in)"/>
				</DerivedField>
			</NeuralInput>
			<NeuralInput id="input/82">
				<DerivedField optype="continuous" dataType="double">
					<FieldRef field="tf-idf(lowercase(x1), is)"/>
				</DerivedField>
			</NeuralInput>
			<NeuralInput id="input/83">
				<DerivedField optype="continuous" dataType="double">
					<FieldRef field="tf-idf(lowercase(x1), it)"/>
				</DerivedField>
			</NeuralInput>
			<NeuralInput id="input/84">
				<DerivedField optype="continuous" dataType="double">
					<FieldRef field="tf-idf(lowercase(x1), job)"/>
				</DerivedField>
			</NeuralInput>
			<NeuralInput id="input/85">
				<DerivedField optype="continuous" dataType="double">
					<FieldRef field="tf-idf(lowercase(x1), keeps)"/>
				</DerivedField>
			</NeuralInput>
			<NeuralInput id="input/86">
				<DerivedField optype="continuous" dataType="double">
					<FieldRef field="tf-idf(lowercase(x1), kelvin)"/>
				</DerivedField>
			</NeuralInput>
			<NeuralInput id="input/87">
				<DerivedField optype="continuous" dataType="double">
					<FieldRef field="tf-idf(lowercase(x1), know)"/>
				</DerivedField>
			</NeuralInput>
			<NeuralInput id="input/88">
				<DerivedField optype="continuous" dataType="double">
					<FieldRef field="tf-idf(lowercase(x1), kobey)"/>
				</DerivedField>
			</NeuralInput>
			<NeuralInput id="input/89">
				<DerivedField optype="continuous" dataType="double">
					<FieldRef field="tf-idf(lowercase(x1), length)"/>
				</DerivedField>
			</NeuralInput>
			<NeuralInput id="input/90">
				<DerivedField optype="continuous" dataType="double">
					<FieldRef field="tf-idf(lowercase(x1), level)"/>
				</DerivedField>
			</NeuralInput>
			<NeuralInput id="input/91">
				<DerivedField optype="continuous" dataType="double">
					<FieldRef field="tf-idf(lowercase(x1), levels)"/>
				</DerivedField>
			</NeuralInput>
			<NeuralInput id="input/92">
				<DerivedField optype="continuous" dataType="double">
					<FieldRef field="tf-idf(lowercase(x1), like)"/>
				</DerivedField>
			</NeuralInput>
			<NeuralInput id="input/93">
				<DerivedField optype="continuous" dataType="double">
					<FieldRef field="tf-idf(lowercase(x1), localized)"/>
				</DerivedField>
			</NeuralInput>
			<NeuralInput id="input/94">
				<DerivedField optype="continuous" dataType="double">
					<FieldRef field="tf-idf(lowercase(x1), location)"/>
				</DerivedField>
			</NeuralInput>
			<NeuralInput id="input/95">
				<DerivedField optype="continuous" dataType="double">
					<FieldRef field="tf-idf(lowercase(x1), long)"/>
				</DerivedField>
			</NeuralInput>
			<NeuralInput id="input/96">
				<DerivedField optype="continuous" dataType="double">
					<FieldRef field="tf-idf(lowercase(x1), looking)"/>
				</DerivedField>
			</NeuralInput>
			<NeuralInput id="input/97">
				<DerivedField optype="continuous" dataType="double">
					<FieldRef field="tf-idf(lowercase(x1), lost)"/>
				</DerivedField>
			</NeuralInput>
			<NeuralInput id="input/98">
				<DerivedField optype="continuous" dataType="double">
					<FieldRef field="tf-idf(lowercase(x1), magnetic)"/>
				</DerivedField>
			</NeuralInput>
			<NeuralInput id="input/99">
				<DerivedField optype="continuous" dataType="double">
					<FieldRef field="tf-idf(lowercase(x1), make)"/>
				</DerivedField>
			</NeuralInput>
			<NeuralInput id="input/100">
				<DerivedField optype="continuous" dataType="double">
					<FieldRef field="tf-idf(lowercase(x1), many)"/>
				</DerivedField>
			</NeuralInput>
			<NeuralInput id="input/101">
				<DerivedField optype="continuous" dataType="double">
					<FieldRef field="tf-idf(lowercase(x1), map)"/>
				</DerivedField>
			</NeuralInput>
			<NeuralInput id="input/102">
				<DerivedField optype="continuous" dataType="double">
					<FieldRef field="tf-idf(lowercase(x1), mattson)"/>
				</DerivedField>
			</NeuralInput>
			<NeuralInput id="input/103">
				<DerivedField optype="continuous" dataType="double">
					<FieldRef field="tf-idf(lowercase(x1), me)"/>
				</DerivedField>
			</NeuralInput>
			<NeuralInput id="input/104">
				<DerivedField optype="continuous" dataType="double">
					<FieldRef field="tf-idf(lowercase(x1), mean)"/>
				</DerivedField>
			</NeuralInput>
			<NeuralInput id="input/105">
				<DerivedField optype="continuous" dataType="double">
					<FieldRef field="tf-idf(lowercase(x1), miles)"/>
				</DerivedField>
			</NeuralInput>
			<NeuralInput id="input/106">
				<DerivedField optype="continuous" dataType="double">
					<FieldRef field="tf-idf(lowercase(x1), moist)"/>
				</DerivedField>
			</NeuralInput>
			<NeuralInput id="input/107">
				<DerivedField optype="continuous" dataType="double">
					<FieldRef field="tf-idf(lowercase(x1), much)"/>
				</DerivedField>
			</NeuralInput>
			<NeuralInput id="input/108">
				<DerivedField optype="continuous" dataType="double">
					<FieldRef field="tf-idf(lowercase(x1), my)"/>
				</DerivedField>
			</NeuralInput>
			<NeuralInput id="input/109">
				<DerivedField optype="continuous" dataType="double">
					<FieldRef field="tf-idf(lowercase(x1), name)"/>
				</DerivedField>
			</NeuralInput>
			<NeuralInput id="input/110">
				<DerivedField optype="continuous" dataType="double">
					<FieldRef field="tf-idf(lowercase(x1), nate)"/>
				</DerivedField>
			</NeuralInput>
			<NeuralInput id="input/111">
				<DerivedField optype="continuous" dataType="double">
					<FieldRef field="tf-idf(lowercase(x1), need)"/>
				</DerivedField>
			</NeuralInput>
			<NeuralInput id="input/112">
				<DerivedField optype="continuous" dataType="double">
					<FieldRef field="tf-idf(lowercase(x1), next)"/>
				</DerivedField>
			</NeuralInput>
			<NeuralInput id="input/113">
				<DerivedField optype="continuous" dataType="double">
					<FieldRef field="tf-idf(lowercase(x1), nice)"/>
				</DerivedField>
			</NeuralInput>
			<NeuralInput id="input/114">
				<DerivedField optype="continuous" dataType="double">
					<FieldRef field="tf-idf(lowercase(x1), now)"/>
				</DerivedField>
			</NeuralInput>
			<NeuralInput id="input/115">
				<DerivedField optype="continuous" dataType="double">
					<FieldRef field="tf-idf(lowercase(x1), npcs)"/>
				</DerivedField>
			</NeuralInput>
			<NeuralInput id="input/116">
				<DerivedField optype="continuous" dataType="double">
					<FieldRef field="tf-idf(lowercase(x1), observation)"/>
				</DerivedField>
			</NeuralInput>
			<NeuralInput id="input/117">
				<DerivedField optype="continuous" dataType="double">
					<FieldRef field="tf-idf(lowercase(x1), observe)"/>
				</DerivedField>
			</NeuralInput>
			<NeuralInput id="input/118">
				<DerivedField optype="continuous" dataType="double">
					<FieldRef field="tf-idf(lowercase(x1), ocean)"/>
				</DerivedField>
			</NeuralInput>
			<NeuralInput id="input/119">
				<DerivedField optype="continuous" dataType="double">
					<FieldRef field="tf-idf(lowercase(x1), of)"/>
				</DerivedField>
			</NeuralInput>
			<NeuralInput id="input/120">
				<DerivedField optype="continuous" dataType="double">
					<FieldRef field="tf-idf(lowercase(x1), off)"/>
				</DerivedField>
			</NeuralInput>
			<NeuralInput id="input/121">
				<DerivedField optype="continuous" dataType="double">
					<FieldRef field="tf-idf(lowercase(x1), old)"/>
				</DerivedField>
			</NeuralInput>
			<NeuralInput id="input/122">
				<DerivedField optype="continuous" dataType="double">
					<FieldRef field="tf-idf(lowercase(x1), on)"/>
				</DerivedField>
			</NeuralInput>
			<NeuralInput id="input/123">
				<DerivedField optype="continuous" dataType="double">
					<FieldRef field="tf-idf(lowercase(x1), orbit)"/>
				</DerivedField>
			</NeuralInput>
			<NeuralInput id="input/124">
				<DerivedField optype="continuous" dataType="double">
					<FieldRef field="tf-idf(lowercase(x1), oxygen)"/>
				</DerivedField>
			</NeuralInput>
			<NeuralInput id="input/125">
				<DerivedField optype="continuous" dataType="double">
					<FieldRef field="tf-idf(lowercase(x1), passions)"/>
				</DerivedField>
			</NeuralInput>
			<NeuralInput id="input/126">
				<DerivedField optype="continuous" dataType="double">
					<FieldRef field="tf-idf(lowercase(x1), people)"/>
				</DerivedField>
			</NeuralInput>
			<NeuralInput id="input/127">
				<DerivedField optype="continuous" dataType="double">
					<FieldRef field="tf-idf(lowercase(x1), planet)"/>
				</DerivedField>
			</NeuralInput>
			<NeuralInput id="input/128">
				<DerivedField optype="continuous" dataType="double">
					<FieldRef field="tf-idf(lowercase(x1), plates)"/>
				</DerivedField>
			</NeuralInput>
			<NeuralInput id="input/129">
				<DerivedField optype="continuous" dataType="double">
					<FieldRef field="tf-idf(lowercase(x1), player)"/>
				</DerivedField>
			</NeuralInput>
			<NeuralInput id="input/130">
				<DerivedField optype="continuous" dataType="double">
					<FieldRef field="tf-idf(lowercase(x1), pool1)"/>
				</DerivedField>
			</NeuralInput>
			<NeuralInput id="input/131">
				<DerivedField optype="continuous" dataType="double">
					<FieldRef field="tf-idf(lowercase(x1), pressure)"/>
				</DerivedField>
			</NeuralInput>
			<NeuralInput id="input/132">
				<DerivedField optype="continuous" dataType="double">
					<FieldRef field="tf-idf(lowercase(x1), progress)"/>
				</DerivedField>
			</NeuralInput>
			<NeuralInput id="input/133">
				<DerivedField optype="continuous" dataType="double">
					<FieldRef field="tf-idf(lowercase(x1), prospector)"/>
				</DerivedField>
			</NeuralInput>
			<NeuralInput id="input/134">
				<DerivedField optype="continuous" dataType="double">
					<FieldRef field="tf-idf(lowercase(x1), pulling)"/>
				</DerivedField>
			</NeuralInput>
			<NeuralInput id="input/135">
				<DerivedField optype="continuous" dataType="double">
					<FieldRef field="tf-idf(lowercase(x1), pushed)"/>
				</DerivedField>
			</NeuralInput>
			<NeuralInput id="input/136">
				<DerivedField optype="continuous" dataType="double">
					<FieldRef field="tf-idf(lowercase(x1), quest)"/>
				</DerivedField>
			</NeuralInput>
			<NeuralInput id="input/137">
				<DerivedField optype="continuous" dataType="double">
					<FieldRef field="tf-idf(lowercase(x1), radiation)"/>
				</DerivedField>
			</NeuralInput>
			<NeuralInput id="input/138">
				<DerivedField optype="continuous" dataType="double">
					<FieldRef field="tf-idf(lowercase(x1), radius)"/>
				</DerivedField>
			</NeuralInput>
			<NeuralInput id="input/139">
				<DerivedField optype="continuous" dataType="double">
					<FieldRef field="tf-idf(lowercase(x1), rays)"/>
				</DerivedField>
			</NeuralInput>
			<NeuralInput id="input/140">
				<DerivedField optype="continuous" dataType="double">
					<FieldRef field="tf-idf(lowercase(x1), researcher)"/>
				</DerivedField>
			</NeuralInput>
			<NeuralInput id="input/141">
				<DerivedField optype="continuous" dataType="double">
					<FieldRef field="tf-idf(lowercase(x1), robot)"/>
				</DerivedField>
			</NeuralInput>
			<NeuralInput id="input/142">
				<DerivedField optype="continuous" dataType="double">
					<FieldRef field="tf-idf(lowercase(x1), rotate)"/>
				</DerivedField>
			</NeuralInput>
			<NeuralInput id="input/143">
				<DerivedField optype="continuous" dataType="double">
					<FieldRef field="tf-idf(lowercase(x1), rotation)"/>
				</DerivedField>
			</NeuralInput>
			<NeuralInput id="input/144">
				<DerivedField optype="continuous" dataType="double">
					<FieldRef field="tf-idf(lowercase(x1), saige)"/>
				</DerivedField>
			</NeuralInput>
			<NeuralInput id="input/145">
				<DerivedField optype="continuous" dataType="double">
					<FieldRef field="tf-idf(lowercase(x1), scientist)"/>
				</DerivedField>
			</NeuralInput>
			<NeuralInput id="input/146">
				<DerivedField optype="continuous" dataType="double">
					<FieldRef field="tf-idf(lowercase(x1), see)"/>
				</DerivedField>
			</NeuralInput>
			<NeuralInput id="input/147">
				<DerivedField optype="continuous" dataType="double">
					<FieldRef field="tf-idf(lowercase(x1), seismic)"/>
				</DerivedField>
			</NeuralInput>
			<NeuralInput id="input/148">
				<DerivedField optype="continuous" dataType="double">
					<FieldRef field="tf-idf(lowercase(x1), should)"/>
				</DerivedField>
			</NeuralInput>
			<NeuralInput id="input/149">
				<DerivedField optype="continuous" dataType="double">
					<FieldRef field="tf-idf(lowercase(x1), sick)"/>
				</DerivedField>
			</NeuralInput>
			<NeuralInput id="input/150">
				<DerivedField optype="continuous" dataType="double">
					<FieldRef field="tf-idf(lowercase(x1), something)"/>
				</DerivedField>
			</NeuralInput>
			<NeuralInput id="input/151">
				<DerivedField optype="continuous" dataType="double">
					<FieldRef field="tf-idf(lowercase(x1), speak)"/>
				</DerivedField>
			</NeuralInput>
			<NeuralInput id="input/152">
				<DerivedField optype="continuous" dataType="double">
					<FieldRef field="tf-idf(lowercase(x1), speed)"/>
				</DerivedField>
			</NeuralInput>
			<NeuralInput id="input/153">
				<DerivedField optype="continuous" dataType="double">
					<FieldRef field="tf-idf(lowercase(x1), start)"/>
				</DerivedField>
			</NeuralInput>
			<NeuralInput id="input/154">
				<DerivedField optype="continuous" dataType="double">
					<FieldRef field="tf-idf(lowercase(x1), sun)"/>
				</DerivedField>
			</NeuralInput>
			<NeuralInput id="input/155">
				<DerivedField optype="continuous" dataType="double">
					<FieldRef field="tf-idf(lowercase(x1), surveyor)"/>
				</DerivedField>
			</NeuralInput>
			<NeuralInput id="input/156">
				<DerivedField optype="continuous" dataType="double">
					<FieldRef field="tf-idf(lowercase(x1), take)"/>
				</DerivedField>
			</NeuralInput>
			<NeuralInput id="input/157">
				<DerivedField optype="continuous" dataType="double">
					<FieldRef field="tf-idf(lowercase(x1), talk)"/>
				</DerivedField>
			</NeuralInput>
			<NeuralInput id="input/158">
				<DerivedField optype="continuous" dataType="double">
					<FieldRef field="tf-idf(lowercase(x1), talking)"/>
				</DerivedField>
			</NeuralInput>
			<NeuralInput id="input/159">
				<DerivedField optype="continuous" dataType="double">
					<FieldRef field="tf-idf(lowercase(x1), tectonic)"/>
				</DerivedField>
			</NeuralInput>
			<NeuralInput id="input/160">
				<DerivedField optype="continuous" dataType="double">
					<FieldRef field="tf-idf(lowercase(x1), tektounic)"/>
				</DerivedField>
			</NeuralInput>
			<NeuralInput id="input/161">
				<DerivedField optype="continuous" dataType="double">
					<FieldRef field="tf-idf(lowercase(x1), tell)"/>
				</DerivedField>
			</NeuralInput>
			<NeuralInput id="input/162">
				<DerivedField optype="continuous" dataType="double">
					<FieldRef field="tf-idf(lowercase(x1), temp)"/>
				</DerivedField>
			</NeuralInput>
			<NeuralInput id="input/163">
				<DerivedField optype="continuous" dataType="double">
					<FieldRef field="tf-idf(lowercase(x1), temperature)"/>
				</DerivedField>
			</NeuralInput>
			<NeuralInput id="input/164">
				<DerivedField optype="continuous" dataType="double">
					<FieldRef field="tf-idf(lowercase(x1), that)"/>
				</DerivedField>
			</NeuralInput>
			<NeuralInput id="input/165">
				<DerivedField optype="continuous" dataType="double">
					<FieldRef field="tf-idf(lowercase(x1), the)"/>
				</DerivedField>
			</NeuralInput>
			<NeuralInput id="input/166">
				<DerivedField optype="continuous" dataType="double">
					<FieldRef field="tf-idf(lowercase(x1), their)"/>
				</DerivedField>
			</NeuralInput>
			<NeuralInput id="input/167">
				<DerivedField optype="continuous" dataType="double">
					<FieldRef field="tf-idf(lowercase(x1), there)"/>
				</DerivedField>
			</NeuralInput>
			<NeuralInput id="input/168">
				<DerivedField optype="continuous" dataType="double">
					<FieldRef field="tf-idf(lowercase(x1), theron)"/>
				</DerivedField>
			</NeuralInput>
			<NeuralInput id="input/169">
				<DerivedField optype="continuous" dataType="double">
					<FieldRef field="tf-idf(lowercase(x1), this)"/>
				</DerivedField>
			</NeuralInput>
			<NeuralInput id="input/170">
				<DerivedField optype="continuous" dataType="double">
					<FieldRef field="tf-idf(lowercase(x1), tide)"/>
				</DerivedField>
			</NeuralInput>
			<NeuralInput id="input/171">
				<DerivedField optype="continuous" dataType="double">
					<FieldRef field="tf-idf(lowercase(x1), tides)"/>
				</DerivedField>
			</NeuralInput>
			<NeuralInput id="input/172">
				<DerivedField optype="continuous" dataType="double">
					<FieldRef field="tf-idf(lowercase(x1), tilt)"/>
				</DerivedField>
			</NeuralInput>
			<NeuralInput id="input/173">
				<DerivedField optype="continuous" dataType="double">
					<FieldRef field="tf-idf(lowercase(x1), to)"/>
				</DerivedField>
			</NeuralInput>
			<NeuralInput id="input/174">
				<DerivedField optype="continuous" dataType="double">
					<FieldRef field="tf-idf(lowercase(x1), together)"/>
				</DerivedField>
			</NeuralInput>
			<NeuralInput id="input/175">
				<DerivedField optype="continuous" dataType="double">
					<FieldRef field="tf-idf(lowercase(x1), up)"/>
				</DerivedField>
			</NeuralInput>
			<NeuralInput id="input/176">
				<DerivedField optype="continuous" dataType="double">
					<FieldRef field="tf-idf(lowercase(x1), want)"/>
				</DerivedField>
			</NeuralInput>
			<NeuralInput id="input/177">
				<DerivedField optype="continuous" dataType="double">
					<FieldRef field="tf-idf(lowercase(x1), water)"/>
				</DerivedField>
			</NeuralInput>
			<NeuralInput id="input/178">
				<DerivedField optype="continuous" dataType="double">
					<FieldRef field="tf-idf(lowercase(x1), wave)"/>
				</DerivedField>
			</NeuralInput>
			<NeuralInput id="input/179">
				<DerivedField optype="continuous" dataType="double">
					<FieldRef field="tf-idf(lowercase(x1), we)"/>
				</DerivedField>
			</NeuralInput>
			<NeuralInput id="input/180">
				<DerivedField optype="continuous" dataType="double">
					<FieldRef field="tf-idf(lowercase(x1), what)"/>
				</DerivedField>
			</NeuralInput>
			<NeuralInput id="input/181">
				<DerivedField optype="continuous" dataType="double">
					<FieldRef field="tf-idf(lowercase(x1), what's)"/>
				</DerivedField>
